,0,1,2,3,4,5,6,7,8,9,10,11,12,13,14,15,16,17,18,19,20,21,22,23,24,25,26,27,28,29,30,31,32,33,34,35,36,37,38,39,40,41,42,43,44,45,46,47,48,49,50,51,52,53,54,55,56,57,58,59,60,61,62,63,64,65,66,67,68,69,70,71,72,73,74,75,76,77,78,79,80,81,82,83,84,85,86,87,88,89,90,91,92,93,94,95,96,97,98,99,100,101,102,103,104,105,106,107,108,109,110,111,112,113,114,115,116,117,118,119,120,121,122,123,124,125,126,127,128,129,130,131,132,133,134,135,136,137,138,139,140,141,142,143,144,145,146,147,148,149,150,151,152,153,154,155,156,157,158,159,160,161,162,163,164,165,166,167,168,169,170,171,172,173,174,175,176,177,178,179,180,181,182,183,184,185,186,187,188,189,190,191,192,193,194,195,196,197,198,199,200,201,202,203,204,205,206,207,208,209,210,211,212,213,214,215,216,217,218,219,220,221,222,223,224,225,226,227,228,229,230,231,232,233,234,235,236,237,238,239,240,241,242,243,244,245,246,247,248,249,250,251,252,253,254,255,256,257,258,259,260,261,262,263,264,265,266,267,268,269,270,271,272,273,274,275,276,277,278,279,280,281,282,283,284,285,286,287,288,289,290,291,292,293,294,295,296,297,298,299,300,301,302,303,304,305,306,307,308,309,310,311,312,313,314,315,316,317,318,319,320,321,322,323,324,325,326,327,328,329,330,331,332,333,334,335,336,337,338,339,340,341,342,343,344,345,346,347,348,349,350,351,352,353,354,355,356,357,358,359,360,361,362,363,364,365,366,367,368,369,370,371,372,373,374,375,376,377,378,379,380,381,382,383,384,385,386,387,388,389,390,391,392,393,394,395,396,397,398,399,400,401,402,403,404,405,406,407,408,409,410,411,412,413,414,415,416,417,418,419,420,421,422,423,424,425,426,427,428,429,430,431,432,433,434,435,436,437,438,439,440,441,442,443,444,445,446,447,448,449,450,451,452,453,454,455,456,457,458,459,460,461,462,463,464,465,466,467,468,469,470,471,472,473,474,475,476,477,478,479,480,481,482,483,484,485,486,487,488,489,490,491,492,493,494,495,496,497,498,499,500,501,502,503,504,505,506,507,508,509,510,511,512,513,514,515,516,517,518,519,520,521,522,523,524,525,526,527,528,529,530,531,532,533,534,535,536,537,538,539,540,541,542,543,544,545,546,547,548,549,550,551,552,553,554,555,556,557,558,559,560,561,562,563,564,565,566,567,568,569,570,571,572,573,574,575,576,577,578,579,580,581,582,583,584,585,586,587,588,589,590,591,592,593,594,595,596,597,598,599,600,601,602,603,604,605,606,607,608,609,610,611,612,613,614,615,616,617,618,619,620,621,622,623,624,625,626,627,628,629,630,631,632,633,634,635,636,637,638,639,640,641,642,643,644,645,646,647,648,649,650,651,652,653,654,655,656,657,658,659,660,661,662,663,664,665,666,667,668,669,670,671,672,673,674,675,676,677,678,679,680,681,682,683,684,685,686,687,688,689,690,691,692,693,694,695,696,697,698,699,700,701,702,703,704,705,706,707,708,709,710,711,712,713,714,715,716,717,718,719,720,721,722,723,724,725,726,727,728,729,730,731,732,733,734,735,736,737,738,739,740,741,742,743,744,745,746,747,748,749,750,751,752,753,754,755,756,757,758,759,760,761,762,763,764,765,766,767,768,769,770,771,772,773,774,775,776,777,778,779,780,781,782,783,784,785,786,787,788,789,790,791,792,793,794,795,796,797,798,799,800,801,802,803,804,805,806,807,808,809,810,811,812,813,814,815,816,817,818,819,820,821,822,823,824,825,826,827,828,829,830,831,832,833,834,835,836,837,838,839,840,841,842,843,844,845,846,847,848,849,850,851,852,853,854,855,856,857,858,859,860,861,862,863,864,865,866,867,868,869,870,871,872,873,874,875,876,877,878,879,880,881,882,883,884,885,886,887,888,889,890,891,892,893,894,895,896,897,898,899,900,901,902,903,904,905,906,907,908,909,910,911,912,913,914,915,916,917,918,919,920,921,922,923,924,925,926,927,928,929,930,931,932,933,934,935,936,937,938,939,940,941,942,943,944,945,946,947,948,949,950,951,952,953,954,955,956,957,958,959,960,961,962,963,964,965,966,967,968,969,970,971,972,973,974,975,976,977,978,979,980,981,982,983,984,985,986,987,988,989,990,991,992,993,994,995,996,997,998,999,1000,1001,1002,1003,1004,1005,1006,1007,1008,1009,1010,1011,1012,1013,1014,1015,1016,1017,1018,1019,1020,1021,1022,1023,1024,1025,1026,1027,1028,1029,1030,1031,1032,1033,1034,1035,1036,1037,1038,1039,1040,1041,1042,1043,1044,1045,1046,1047,1048,1049,1050,1051,1052,1053,1054,1055,1056,1057,1058,1059,1060,1061,1062,1063,1064,1065,1066,1067,1068,1069,1070,1071,1072,1073,1074,1075,1076,1077,1078,1079,1080,1081,1082,1083,1084,1085,1086,1087,1088,1089,1090,1091,1092,1093,1094,1095,1096,1097,1098,1099,1100,1101,1102,1103,1104,1105,1106,1107,1108,1109,1110,1111,1112,1113,1114,1115,1116,1117,1118,1119,1120,1121,1122,1123,1124,1125,1126,1127,1128,1129,1130,1131,1132,1133,1134,1135,1136,1137,1138,1139,1140,1141,1142,1143,1144,1145,1146,1147,1148,1149,1150,1151,1152,1153,1154,1155,1156,1157,1158,1159,1160,1161,1162,1163,1164,1165,1166,1167,1168,1169,1170,1171,1172,1173,1174,1175,1176,1177,1178,1179,1180,1181,1182,1183,1184,1185,1186,1187,1188,1189,1190,1191,1192,1193,1194,1195,1196,1197,1198,1199,1200,1201,1202,1203,1204,1205,1206,1207,1208,1209,1210,1211,1212,1213,1214,1215,1216,1217,1218,1219,1220,1221,1222,1223,1224,1225,1226,1227,1228,1229,1230,1231,1232,1233,1234,1235,1236,1237,1238,1239,1240,1241,1242,1243,1244,1245,1246,1247,1248,1249,1250,1251,1252,1253,1254,1255,1256,1257,1258,1259,1260,1261,1262,1263,1264,1265,1266,1267,1268,1269,1270,1271,1272,1273,1274,1275,1276,1277,1278,1279,1280,1281,1282,1283,1284,1285,1286,1287,1288,1289,1290,1291,1292,1293,1294,1295,1296,1297,1298,1299,1300,1301,1302,1303,1304,1305,1306,1307,1308,1309,1310,1311,1312,1313,1314,1315,1316,1317,1318,1319,1320,1321,1322,1323,1324,1325,1326,1327,1328,1329,1330,1331,1332,1333,1334,1335,1336,1337,1338,1339,1340,1341,1342,1343,1344,1345,1346,1347,1348,1349,1350,1351,1352,1353,1354,1355,1356,1357,1358,1359,1360,1361,1362,1363,1364,1365,1366,1367,1368,1369,1370,1371,1372,1373,1374,1375,1376,1377,1378,1379,1380,1381,1382,1383,1384,1385,1386,1387,1388,1389,1390,1391,1392,1393,1394,1395,1396,1397,1398,1399,1400,1401,1402,1403,1404,1405,1406,1407,1408,1409,1410,1411,1412,1413,1414,1415,1416,1417,1418,1419,1420,1421,1422,1423,1424,1425,1426,1427,1428,1429,1430,1431,1432,1433,1434,1435,1436,1437,1438,1439,1440,1441,1442,1443,1444,1445,1446,1447,1448,1449,1450,1451,1452,1453,1454,1455,1456,1457,1458,1459,1460,1461,1462,1463,1464,1465,1466,1467,1468,1469,1470,1471,1472,1473,1474,1475,1476,1477,1478,1479,1480,1481,1482,1483,1484,1485,1486,1487,1488,1489,1490,1491,1492,1493,1494,1495,1496,1497,1498,1499
Summer Skin,0.02620580419898033,0.12054669857025146,-0.07487372308969498,0.01450678426772356,-0.03219570219516754,-0.008236110210418701,0.037624046206474304,-0.070381298661232,-0.0010295137763023376,0.0681350901722908,0.010856689885258675,-0.01038872916251421,0.021900564432144165,-0.014600376598536968,-0.013945231214165688,-0.01450678426772356,-0.048667922616004944,-0.01984153687953949,0.011932999826967716,-0.031634148210287094,-0.02077745832502842,0.12503911554813385,-0.030698226764798164,-0.0423036552965641,-0.09658710658550262,0.015161929652094841,0.152742400765419,0.04043181240558624,-0.014319599606096745,0.10407447814941406,0.031634148210287094,0.03650094196200371,0.027328910306096077,0.06850945949554443,-0.007113004103302956,-0.06663761287927628,-0.0939665213227272,-0.1632247269153595,-0.026018619537353516,-0.015910666435956955,0.011886203661561012,-0.07337625324726105,0.06476577371358871,-0.0126349413767457,-0.05915024131536484,-0.02676735632121563,0.019092800095677376,0.06476577371358871,0.027328910306096077,0.07225314527750015,0.05765276774764061,-0.07000692933797836,-0.070381298661232,-0.008002129383385181,0.04249083995819092,0.006879023276269436,0.01357086282223463,-0.04024462774395943,-0.023865999653935432,-0.0469832606613636,-0.04417549818754196,0.014413191936910152,-0.02171337977051735,0.00472640385851264,-0.00692581944167614,0.015255521051585674,-0.034816283732652664,-0.026018619537353516,0.009546400047838688,-0.018812023103237152,0.08385857194662094,-0.010435525327920914,0.0019888333044946194,0.08797662705183029,0.006832227576524019,0.03182133287191391,-0.009265623055398464,0.022930078208446503,0.011886203661561012,0.031072596088051796,0.021526195108890533,-0.03425472974777222,-0.0598989799618721,-0.04436268284916878,0.008189314045011997,0.08198672533035278,-0.09134594351053238,0.017876101657748222,0.04473705217242241,0.025644250214099884,0.0505397655069828,0.028452016413211823,-0.09471525996923447,-0.09883331507444382,-0.050914131104946136,-0.03930870443582535,0.03257007151842117,0.008002129383385181,0.06027334928512573,-0.06401703506708145,0.009593196213245392,-0.0258314348757267,-0.05428345128893852,0.05915024131536484,-0.05578092485666275,-0.0939665213227272,-0.004141452722251415,0.03631375730037689,-0.09471525996923447,-0.05390908196568489,-0.0234916303306818,0.06663761287927628,0.09246905148029327,0.004118055105209351,0.15423987805843353,-0.029387937858700752,0.11380806565284729,0.05578092485666275,0.020964642986655235,0.006832227576524019,-0.024333961308002472,-0.06251955777406693,0.024708328768610954,-0.006457858718931675,0.10182826220989227,0.01544270571321249,-0.044924236834049225,0.024146776646375656,-0.04941665753722191,0.008002129383385181,-0.06139645352959633,-0.042116470634937286,-0.0006726935971528292,-0.0610220842063427,-0.07899177819490433,-0.06551451236009598,0.04043181240558624,0.03275725618004799,-0.013102902099490166,0.04099336266517639,0.02124541997909546,-0.02957512065768242,0.026954540982842445,-0.005638927221298218,0.04979102686047554,0.06439140439033508,0.012822125107049942,0.02714172564446926,-0.021432604640722275,-0.07487372308969498,0.050914131104946136,0.06251955777406693,-0.002328104805201292,0.030323859304189682,0.06364266574382782,-0.08498167991638184,0.04979102686047554,-0.11830048263072968,0.022836485877633095,0.07974051684141159,0.07824303954839706,0.0038606764283031225,0.008002129383385181,0.01619144342839718,0.1010795310139656,0.02676735632121563,0.012541349045932293,-0.03556501865386963,0.02620580419898033,-0.06626324355602264,0.0015208725817501545,-0.009125235490500927,-0.013383678160607815,-0.07824303954839706,-0.03144696354866028,-0.012073388323187828,0.014132415875792503,-0.017314549535512924,-0.04754481464624405,0.04941665753722191,-0.09958205372095108,-0.013664455153048038,0.005404946859925985,0.04791918396949768,0.060647718608379364,-0.014974744990468025,-0.019092800095677376,-0.04061899706721306,0.10557195544242859,0.021900564432144165,0.03837278485298157,0.04642171040177345,0.056904032826423645,0.050914131104946136,-0.08647914975881577,0.029387937858700752,0.04660889506340027,0.03500346466898918,-0.06850945949554443,0.03125977888703346,0.08797662705183029,-0.011371446773409843,-0.011886203661561012,-0.010154749266803265,0.03500346466898918,-0.11006437242031097,-0.03051104210317135,0.010575913824141026,-0.0387471541762352,0.09808457642793655,0.04941665753722191,-0.04511141777038574,-0.03912151977419853,0.05203723907470703,-0.08385857194662094,-0.025457065552473068,0.06326829642057419,-0.03444191440939903,-0.06027334928512573,0.021526195108890533,-0.02957512065768242,-0.021994156762957573,0.06588888168334961,0.04305239021778107,-0.014600376598536968,-0.019935129210352898,0.020403090864419937,-0.0034161137882620096,-0.05503218621015549,-0.07524809241294861,0.001813348033465445,0.03706249222159386,-0.024708328768610954,0.009218827821314335,-0.0003407339390832931,-0.012822125107049942,-0.005358151160180569,-0.02807764708995819,-0.03650094196200371,-0.009827176108956337,-0.05016539618372917,0.03182133287191391,0.010435525327920914,-0.10407447814941406,-0.07113003730773926,-0.025457065552473068,0.03650094196200371,-0.033880360424518585,-0.032944440841674805,0.026018619537353516,-0.03912151977419853,-0.027328910306096077,0.0013804843183606863,0.04642171040177345,0.09658710658550262,0.09583836793899536,0.052785977721214294,0.05128850042819977,-0.08273546397686005,0.02770327776670456,0.03088541142642498,-0.03556501865386963,-0.02863919921219349,0.01478756032884121,0.04417549818754196,-0.006551451049745083,-0.07711993902921677,0.05016539618372917,0.06027334928512573,-0.009031643159687519,0.05915024131536484,0.10407447814941406,0.0423036552965641,0.015817074105143547,-0.023210855200886726,-0.07150440663099289,0.017595324665308,-0.0516628697514534,-0.015068337321281433,-0.07150440663099289,0.02030949853360653,0.05540655553340912,0.010669506154954433,0.06251955777406693,0.02994948998093605,-0.039495889097452164,-0.033880360424518585,0.045485787093639374,0.030323859304189682,0.01619144342839718,-0.05578092485666275,0.012354164384305477,-0.03257007151842117,-0.0044924234971404076,0.014038823544979095,-0.0505397655069828,-0.05915024131536484,0.04529860243201256,0.09883331507444382,-0.018156878650188446,-0.02627985179424286,0.11576440930366516,0.04091672971844673,-0.09447440505027771,-0.0931437760591507,0.06320470571517944,0.013722074218094349,-0.05621892213821411,-0.007692677900195122,-0.008066916838288307,-0.058214861899614334,-0.04490860551595688,-0.048900481313467026,-0.0469045452773571,-0.03110336884856224,0.049898453056812286,-0.05588626489043236,0.19826318323612213,-0.06320470571517944,0.03659219667315483,-0.05455563962459564,-0.03160235285758972,0.05089642107486725,-0.03293297812342644,-0.12042159587144852,-0.08715596050024033,0.016632817685604095,0.07152111083269119,0.027610477060079575,-0.07784158736467361,-0.09780096262693405,0.005010636057704687,-0.011559807695448399,-0.047237202525138855,-0.03592688590288162,-0.004906680900603533,-0.04041774570941925,0.03509524464607239,0.019959380850195885,-0.0169654730707407,0.019294068217277527,-0.0728517398238182,-0.03675852715969086,0.03376461938023567,0.07451502233743668,-0.07085580378770828,0.04208102822303772,0.04956579580903053,-0.03110336884856224,0.009979690425097942,0.08715596050024033,0.0728517398238182,0.016133833676576614,0.014886371791362762,0.052227046340703964,-0.04141571372747421,0.010312346741557121,0.04590657725930214,-0.07118845731019974,0.1284053474664688,-0.031436026096343994,-0.0058214860036969185,0.0635373592376709,0.006445216480642557,-0.013306253589689732,0.13838504254817963,-0.08316408842802048,0.07152111083269119,0.022620631381869316,0.03559422865509987,-0.00042621593456715345,0.026113523170351982,5.522615174413659e-05,0.010353928431868553,-0.08216612040996552,-0.09713565558195114,0.11177252978086472,0.07085580378770828,0.0635373592376709,0.07684361934661865,0.044575951993465424,0.005280919373035431,0.010977659374475479,-0.011559807695448399,-0.05455563962459564,-0.02944008633494377,0.07152111083269119,0.1350584775209427,-0.031436026096343994,-0.01280726958066225,-0.030271727591753006,-0.04208102822303772,0.0037423837929964066,0.005135382525622845,-0.037423837929964066,-0.032433994114398956,0.0256145391613245,-0.12907066941261292,0.0844947099685669,0.0050938003696501255,-0.04590657725930214,-0.02894110232591629,0.03609321266412735,-0.023784928023815155,-0.0844947099685669,-0.05688423663377762,0.11642972379922867,0.048900481313467026,-0.009730198420584202,0.01027076505124569,-0.09913159161806107,-0.1111072227358818,0.10911127924919128,0.06952517479658127,0.008649065159261227,-0.053225014358758926,-0.026446178555488586,-0.09913159161806107,-0.032600320875644684,0.01771395094692707,-0.050563763827085495,0.03110336884856224,-0.028608445078134537,0.0015489311190322042,0.08382939547300339,0.0051145912148058414,-0.0425800122320652,0.04657188802957535,0.11177252978086472,0.03442993015050888,-0.04590657725930214,-0.026945164427161217,-0.1363891065120697,-0.04856782779097557,0.019959380850195885,0.035261571407318115,0.06719658523797989,0.05089642107486725,0.025448210537433624,0.04856782779097557,-0.0027444148436188698,0.0106450030580163,-0.0425800122320652,-0.005218546371906996,0.03875446319580078,-0.024283913895487785,0.06520064175128937,0.05754954740405083,-0.006944201420992613,-0.008815392851829529,0.04108306020498276,-0.07617830485105515,-0.0844947099685669,0.10977659374475479,-0.042912669479846954,-0.054888296872377396,-0.102458156645298,-0.10511940717697144,-0.030770711600780487,0.09114784002304077,0.05621892213821411,0.014553715474903584,0.02295328862965107,0.054888296872377396,0.016133833676576614,-0.06486798822879791,-0.07019048929214478,-0.024450240656733513,0.018795084208250046,0.0678618922829628,0.024949226528406143,0.031935010105371475,0.05189438909292221,0.018296098336577415,-0.09780096262693405,-0.09048252552747726,0.029273757711052895,-0.09979690611362457,-0.05854751542210579,-0.0678618922829628,-0.013056761585175991,-0.15634848177433014,0.03709118068218231,-0.008066916838288307,-0.03110336884856224,-0.10445409268140793,-0.056551579385995865,-0.11642972379922867,0.0721864253282547,0.07617830485105515,-0.00028847542125731707,-0.12175222486257553,0.06021079793572426,-0.0023181987926363945,0.043910637497901917,-0.010021272115409374,-0.03875446319580078,-0.0160506684333086,-0.017048638314008713,-0.08183345943689346,0.038421809673309326,-0.036924853920936584,-0.054888296872377396,0.09913159161806107,0.07318439334630966,-0.054888296872377396,-0.03442993015050888,-0.04141571372747421,-0.023618601262569427,-0.1270747184753418,-0.19427131116390228,0.10645002871751785,-0.0678618922829628,0.04224735498428345,0.18096505105495453,-0.06220673769712448,-0.09447440505027771,0.043910637497901917,0.0382554791867733,-0.012640940956771374,-0.0685272067785263,0.052227046340703964,0.031436026096343994,0.04490860551595688,0.034762587398290634,0.03426360338926315,0.05255970358848572,-0.05854751542210579,-0.06653127074241638,0.0025469001848250628,0.09447440505027771,-0.024782897904515266,-0.03276665136218071,0.056551579385995865,-0.032600320875644684,0.0364258699119091,0.03808915242552757,-0.008191662840545177,-0.009397542104125023,-0.010811331681907177,0.15834441781044006,-0.001954355975612998,0.001621699659153819,-0.08649065345525742,0.1350584775209427,0.0021934527903795242,1.8029713828582317e-05,0.012058792635798454,-0.04923313856124878,-0.005863068159669638,-0.006486798636615276,-0.06985783576965332,0.02104051411151886,0.0212900061160326,0.017131801694631577,-0.01089449506253004,-0.046239230781793594,0.09447440505027771,0.05788220465183258,-0.04524126276373863,0.04756985604763031,-0.10844597220420837,-0.10445409268140793,-0.004511651583015919,0.08782127499580383,0.010811331681907177,-0.041249386966228485,-0.061541423201560974,-0.020208872854709625,-0.06952517479658127,-0.019709888845682144,0.07085580378770828,-0.015884339809417725,0.04657188802957535,0.07251908630132675,-0.05522095412015915,0.0017360503552481532,0.0065283807925879955,-0.05422298610210419,0.018129771575331688,0.09780096262693405,0.01089449506253004,-0.027610477060079575,0.006278888322412968,-0.02844211831688881,-0.06619860976934433,-0.011726136319339275,0.06952517479658127,-0.021456334739923477,-0.041914697736501694,0.050563763827085495,0.04490860551595688,-0.015967505052685738,0.025281881913542747,0.07784158736467361,0.12241753190755844,0.03376461938023567,0.030438056215643883,-0.014969535171985626,0.03725751116871834,0.07243157178163528,0.022729573771357536,0.013789274729788303,-0.003182140178978443,-0.01727447658777237,-0.05485403910279274,0.0053793322294950485,-0.09697951376438141,0.05273260921239853,0.005152036435902119,-0.013789274729788303,-0.0327305868268013,0.019395902752876282,0.05121730640530586,-0.011440551839768887,-0.03424588963389397,0.009205477312207222,0.036518849432468414,-0.010076778009533882,-0.007462876848876476,0.040004048496484756,0.08667544275522232,0.017350241541862488,0.06849177926778793,0.015228814445436,0.006894637364894152,-0.01598646678030491,-0.015380344353616238,0.03803415223956108,-0.01765330135822296,0.008447824977338314,0.0018751898314803839,-0.0497019998729229,-0.016137996688485146,-0.04545914754271507,-0.010228307917714119,0.014471162110567093,0.03909486532211304,-0.05061118304729462,0.031063750386238098,-0.025911713019013405,-0.05606628209352493,0.03227599337697029,-0.0451560877263546,0.020153556019067764,0.05273260921239853,0.0012880091089755297,-0.033033646643161774,0.035155072808265686,-0.026214774698019028,-0.05849076807498932,0.020153556019067764,-0.021062737330794334,-0.03909486532211304,-0.007728055119514465,0.04030711203813553,-0.019244372844696045,0.025457121431827545,-0.014774222858250141,-0.014016570523381233,-0.024699470028281212,0.046671390533447266,-0.03909486532211304,-0.06758259981870651,-0.04727751389145851,-0.042731598019599915,0.05212648957967758,0.02394181676208973,-0.02075967751443386,0.012955856509506702,0.046671390533447266,0.02788161113858223,-0.011592082679271698,0.0028601379599422216,-0.07485606521368027,-0.04788363352417946,-0.005038389004766941,0.002841196721419692,-0.05667240172624588,0.0054929801262915134,0.0530356727540493,-0.008485707454383373,0.011743612587451935,-0.022274982184171677,0.0021971920505166054,-0.04636833071708679,0.0005895483191125095,-0.020911207422614098,0.004280736204236746,-0.0022256041411310434,-0.024244878441095352,0.01681988500058651,0.059096891433000565,0.012577030807733536,-0.03773109242320061,-0.05939995124936104,0.014774222858250141,0.027730079367756844,-0.013940805569291115,0.020002024248242378,-0.012501265853643417,-0.011743612587451935,0.013183152303099632,0.04485302418470383,0.024244878441095352,-0.03227599337697029,0.05121730640530586,-0.017880598083138466,-0.000823947018943727,-0.049398940056562424,0.05455097556114197,-0.023790286853909492,-0.007803820073604584,-0.007879585027694702,-0.031063750386238098,0.03833721578121185,0.03803415223956108,-0.017577536404132843,0.05788464844226837,0.07121933251619339,-0.03712496906518936,0.02212345227599144,-0.024699470028281212,0.051520366221666336,0.009849482215940952,-0.03151834011077881,-0.00488685816526413,-0.012198204174637794,-0.021062737330794334,0.05364179238677025,0.012349735014140606,0.00011068828462157398,0.0067431069910526276,0.009016063995659351,-0.06030913442373276,-0.0225780438631773,0.0016289527993649244,0.0530356727540493,0.0036177905276417732,-0.01985049434006214,-0.04333772137761116,0.02348722517490387,0.03970098868012428,0.024093348532915115,-0.0027086075861006975,0.06697648018598557,-0.08970604836940765,-0.02515406161546707,-0.033033646643161774,-0.03182140365242958,0.024699470028281212,0.030760688707232475,-0.008182646706700325,0.027730079367756844,0.04788363352417946,0.0451560877263546,-0.04121629148721695,-0.06970402598381042,0.021820390596985817,-0.003106374992057681,-0.07031014561653137,0.016668353229761124,-0.007159815635532141,0.016062231734395027,0.014319631271064281,-0.035155072808265686,0.028033141046762466,-0.0044701495207846165,-0.03530660271644592,-0.06243056058883667,-0.081220343708992,-0.003144257701933384,-0.031215280294418335,-0.03394282981753349,0.0071976981125772,0.0071219331584870815,0.012046674266457558,-0.01810789294540882,0.005455097649246454,0.012046674266457558,-0.031215280294418335,0.028942324221134186,0.00742499390617013,0.02212345227599144,-0.05030812323093414,0.01674412004649639,0.01591070182621479,0.03288211673498154,0.06061219424009323,0.011895143426954746,0.013258918188512325,-0.022881103679537773,0.06061219424009323,0.0287907924503088,-0.013107387349009514,0.11152644455432892,0.033033646643161774,-0.01462269201874733,0.0025191945023834705,0.0004616944643203169,-0.030760688707232475,-0.049398940056562424,-0.037428032606840134,-0.012501265853643417,0.05182342603802681,0.0020361910574138165,-0.019698964431881905,0.006212749984115362,0.025002531707286835,-0.058187708258628845,-0.01810789294540882,-0.05576322227716446,0.027275487780570984,0.04121629148721695,0.016137996688485146,-0.012425499968230724,-0.01901707611978054,0.010228307917714119,-0.03803415223956108,0.001572128850966692,-0.024547940120100975,0.005871806293725967,-0.012955856509506702,-0.024093348532915115,0.06061219424009323,-0.034397419542074203,0.004242853727191687,0.021971920505166054,-0.02833620086312294,0.0016005408251658082,0.045762207359075546,0.0016573647735640407,0.004186030011624098,0.005227801855653524,0.016895649954676628,0.013258918188512325,0.04485302418470383,-0.05485403910279274,0.006477928254753351,0.02485099993646145,-0.01128902193158865,-0.004204971250146627,0.0027464900631457567,-0.07637136429548264,-0.01507728360593319,0.037428032606840134,0.040913231670856476,-0.003939792513847351,0.04030711203813553,0.02788161113858223,0.031215280294418335,-0.10485909879207611,0.013486213982105255,0.04121629148721695,0.04242853820323944,-0.07576524466276169,0.04879281669855118,-0.010455603711307049,-0.04636833071708679,0.006818871945142746,-0.06364280730485916,0.027730079367756844,-0.012501265853643417,0.035155072808265686,-0.0067431069910526276,0.008637238293886185,0.04303465783596039,0.037882622331380844,0.018032127991318703,0.028942324221134186,0.038791805505752563,-0.013789274729788303,-0.03197293356060982,-0.06515811383724213,-0.012577030807733536,-0.00905394647270441,-0.017047179862856865,-0.01985049434006214,0.010531368665397167,0.04030711203813553,0.03757956251502037,-0.0451560877263546,-0.02121426910161972,0.022729573771357536,0.003068492515012622,0.004242853727191687,-0.012425499968230724,0.026366304606199265,-0.06788565963506699,-0.012198204174637794,-0.04545914754271507,0.007728055119514465,-0.018789781257510185,0.029851507395505905,0.031669873744249344,-0.0028222554828971624,0.02651783637702465,-0.05030812323093414,-0.03833721578121185,-0.009470655582845211,0.02606324665248394,0.026467327028512955,0.0406101755797863,-0.01919386349618435,0.006869382690638304,-0.07475505024194717,-0.0015910702059045434,0.009243360720574856,0.018890801817178726,0.03394283354282379,0.02121427096426487,-0.04242854192852974,-0.007980606518685818,0.019799984991550446,-0.0024118605069816113,0.008637238293886185,0.028689775615930557,0.04081221669912338,0.006389535963535309,0.04040813446044922,-0.038185685873031616,0.055359143763780594,-0.020608147606253624,0.02232549339532852,0.04525711014866829,0.005152036901563406,0.0054550981149077415,0.024749981239438057,0.005253057461231947,0.025861205533146858,-0.004470149986445904,-0.0462673120200634,-0.021820392459630966,0.003535711672157049,-0.008889789693057537,-0.00671785231679678,-0.006919892970472574,0.009748462587594986,0.017981618642807007,0.011667848564684391,0.014041826128959656,-0.02121427096426487,0.033336710184812546,0.02505304291844368,0.01212244015187025,-0.014142846688628197,-0.03656936064362526,-0.049702003598213196,0.0010228308383375406,0.007121933624148369,-0.023436717689037323,-0.013738765381276608,0.013738765381276608,0.028487734496593475,0.002171937143430114,0.029497938230633736,0.021618351340293884,0.035963237285614014,0.01303162332624197,-0.01848672144114971,0.005556118208914995,0.03374079242348671,-0.014445907436311245,-0.0349530354142189,-0.035357117652893066,-0.016971416771411896,-0.022527534514665604,0.0016668355092406273,-0.010203054174780846,0.030104059725999832,0.0003804047009907663,-0.029497938230633736,0.02212345227599144,-0.006818872410804033,-0.02505304291844368,0.005505608394742012,-0.0005177292041480541,0.03677140176296234,-0.0020204067695885897,0.03636731952428818,-0.004798465874046087,-0.021719371899962425,0.014951009303331375,-0.004621680360287428,0.01828468032181263,0.013132643885910511,-0.024446921423077583,0.0028538245242089033,-0.0349530354142189,0.008788769133388996,0.03757956251502037,0.046671394258737564,-0.01636529341340065,0.026467327028512955,-0.035963237285614014,-0.024851001799106598,-0.0349530354142189,0.06182444468140602,0.004975251387804747,0.0006408477202057838,-0.009798972867429256,0.02020406723022461,-0.046671394258737564,-0.01111223641782999,-0.019496925175189972,-0.03071018122136593,0.018789781257510185,0.005859179422259331,0.01636529341340065,-0.025558143854141235,-0.022830596193671227,0.01838570088148117,-0.0013006367953494191,-0.01717345602810383,0.02222447283565998,0.02606324665248394,0.02495202235877514,-0.0037377523258328438,0.038993850350379944,0.03252854943275452,0.014546927995979786,0.024446921423077583,-0.0327305868268013,0.015355090610682964,0.011768869124352932,0.05111628770828247,0.019901005551218987,-0.05576322600245476,-0.008233156986534595,0.015759171918034554,-0.006818872410804033,-0.06263260543346405,-0.023739779368042946,0.01303162332624197,0.01394080650061369,0.003813517512753606,0.03151834383606911,0.00299272732809186,-0.03071018122136593,-0.01257703173905611,-0.04990404471755028,0.03192242607474327,0.030508140102028847,-0.016870396211743355,-0.03353875130414963,0.06788566708564758,-0.025659164413809776,-0.0541469007730484,-0.0008965554879978299,-0.022729575634002686,0.03172038495540619,0.03778160363435745,-0.012728561647236347,0.035357117652893066,0.004672190640121698,0.01394080650061369,0.005328822415322065,-0.026265287771821022,0.020507127046585083,0.01717345602810383,0.005859179422259331,-0.031316302716732025,0.03353875130414963,-0.009495911188423634,0.015860192477703094,-0.06707750260829926,-0.006414791103452444,0.0009596931631676853,0.041014254093170166,-0.011920399032533169,-0.027275489643216133,-0.015254070051014423,0.0011996164685115218,-0.0231336560100317,-0.02495202235877514,0.00276543153449893,0.04646935313940048,0.025457123294472694,0.049499962478876114,0.03374079242348671,0.006364280823618174,0.00019335922843310982,0.0032579058315604925,0.029295897111296654,0.01343570463359356,-0.008233156986534595,-0.024446921423077583,-0.006187495309859514,0.03879180923104286,-0.0036367319989949465,0.07233055680990219,-0.01626427471637726,0.08162443339824677,0.02990201860666275,-0.012728561647236347,0.04808567836880684,0.0037377523258328438,-0.029093855991959572,-0.010607135482132435,-0.024648960679769516,-0.015153050422668457,-0.019597945734858513,-0.0025633908808231354,0.021618351340293884,0.04747955873608589,0.027679571881890297,-0.010809175670146942,-0.006970403250306845,0.0541469007730484,0.0030053548980504274,-0.033336710184812546,-0.014748969115316868,0.030508140102028847,-0.0036114768590778112,-0.03353875130414963,-0.026265287771821022,0.013334684073925018,0.0038892829325050116,-0.04141833633184433,-0.014951009303331375,-0.0014269122621044517,0.02020406723022461,0.04444894567131996,-0.012880092486739159,0.01343570463359356,-0.01828468032181263,-0.014344887807965279,0.022931616753339767,-0.01262754201889038,-0.003055865177884698,0.037983644753694534,0.030508140102028847,0.014647948555648327,-0.00011522632121341303,0.016870396211743355,-0.002121427096426487,0.0018436211394146085,-0.022729575634002686,-0.005000506527721882,-0.0021340546663850546,0.026467327028512955,0.022628555074334145,0.002980099758133292,-0.026669368147850037,0.03636731952428818,0.007374484557658434,0.013334684073925018,0.023537738248705864,0.04040813446044922,0.008687748573720455,-0.013334684073925018,-0.009192850440740585,0.021517330780625343,0.023638758808374405,-0.004848976153880358,0.01303162332624197,-0.003055865177884698,-0.03192242607474327,0.01303162332624197,-0.029295897111296654,-0.02808365225791931,0.01161733828485012,0.04263057932257652,0.0349530354142189,0.025861205533146858,0.020911209285259247,0.0073239742778241634,-0.01939590461552143,-0.0058339242823421955,0.03091222234070301,0.012223460711538792,0.00013811374083161354,0.003384181298315525,0.004369129426777363,0.07717953622341156,0.002336095320060849,-0.031316302716732025,-0.03475099429488182,-0.010304073803126812,0.0036114768590778112,-0.019092842936515808,-0.03192242607474327,-0.026467327028512955,0.029295897111296654,-0.01929488405585289,0.00015547660586889833,0.0014584810705855489,0.023840798065066338,-0.03980201110243797,-0.01343570463359356,-0.060208119451999664,0.0016542079392820597,-0.05212649330496788,0.06505709886550903,0.007728055585175753,-0.008485708385705948,0.004318619146943092,-0.03071018122136593,0.03939792886376381,-0.008081627078354359,0.0037280875258147717,-0.02258690632879734,0.0005186565103940666,-0.0434267595410347,-0.0489175021648407,0.019716747105121613,0.003540903329849243,0.018094483762979507,0.028202436864376068,0.028452016413211823,-0.02670496143400669,-0.03044864907860756,0.02021590620279312,0.0048667918890714645,-0.011231059208512306,5.410796438809484e-05,-0.0038372783455997705,-0.0189680103212595,-0.018219273537397385,-0.020091116428375244,0.0653897225856781,0.0156610868871212,-0.012042190879583359,0.022711696103215218,0.06039813905954361,-0.014163613319396973,0.001754852943122387,0.03194612264633179,-0.0075809648260474205,-0.020465485751628876,0.006395463831722736,-0.048168763518333435,-0.011231059208512306,0.006301871966570616,0.011605427600443363,0.025956224650144577,-0.023710012435913086,0.00011211560195079073,-0.003213330637663603,-0.027079330757260323,-0.014849955216050148,0.005147568415850401,-0.011667822487652302,-0.02994948998093605,0.007206595968455076,-0.04966623708605766,-0.01104387454688549,0.00761216226965189,0.0049603842198848724,0.011917401105165482,0.002901356900110841,-0.030323859304189682,-0.016971377655863762,-0.014974744990468025,-0.0002827263087965548,0.01846885308623314,-0.025457065552473068,0.002090224763378501,0.006863424554467201,-0.0045860158279538155,-0.006239477079361677,-0.0065202536061406136,-0.007300188299268484,0.033942755311727524,-0.022337328642606735,-0.007050609216094017,-0.03444191440939903,0.023710012435913086,-0.02171337977051735,-0.022711696103215218,-0.00010139150253962725,-0.009047241881489754,0.022836485877633095,-0.04367633908987045,-0.00016768593923188746,-0.024708328768610954,-0.023210855200886726,0.0022462117485702038,-0.01291571743786335,-0.008423293940722942,-0.008298504166305065,0.0008462290861643851,0.019217589870095253,0.02495790831744671,-0.02670496143400669,0.035689808428287506,-0.04043181240558624,-0.010669506154954433,0.04043181240558624,0.03219570219516754,0.021089432761073112,0.005584332160651684,-0.0012244973331689835,-0.017595324665308,0.006301871966570616,-0.041679706424474716,-0.012603743933141232,0.026455383747816086,0.0021994155831635,0.022212538868188858,-0.012104585766792297,-0.006457858718931675,-0.025207487866282463,-0.03194612264633179,0.0048667918890714645,0.012603743933141232,-0.02633059397339821,-0.019716747105121613,0.05066455528140068,-0.0018796424847096205,-0.013726849108934402,-0.010482321493327618,-0.011605427600443363,-0.010295136831700802,0.005584332160651684,-0.00033342206734232605,-0.0019888333044946194,0.04367633908987045,0.007674556691199541,0.02346043288707733,0.02445875108242035,-0.041679706424474716,-0.011605427600443363,0.021838169544935226,-0.002589382929727435,-0.009920768439769745,-0.0036188967060297728,0.03643854707479477,0.029699910432100296,-0.016721798107028008,0.0019966326653957367,0.006177082192152739,0.022961275652050972,0.009296820499002934,-0.006957016885280609,0.009047241881489754,-0.018718430772423744,-0.0015598692698404193,-0.00022813088435214013,0.01010795310139656,-0.0011153065133839846,-0.006457858718931675,0.018219273537397385,0.011917401105165482,-0.01385163888335228,0.005022779107093811,-0.05241160839796066,0.005147568415850401,-0.054657820612192154,0.02633059397339821,0.019716747105121613,-0.007549767382442951,-0.030074279755353928,0.04717044532299042,-0.010232742875814438,0.016222640872001648,-0.026829751208424568,0.013165296986699104,-0.018718430772423744,-0.0029637515544891357,0.04292760044336319,-0.010544716380536556,-0.018718430772423744,0.028826383873820305,-0.011418242938816547,0.01747053489089012,0.019092800095677376,-0.006333069410175085,0.045423392206430435,0.04192928597331047,-0.038435179740190506,0.06838466972112656,0.02633059397339821,-0.024333961308002472,0.02907596342265606,0.0258314348757267,-0.021089432761073112,-0.06988213956356049,-0.032445281744003296,0.006301871966570616,-0.014163613319396973,-0.026455383747816086,0.0011075071524828672,-0.020839853212237358,-0.02533227764070034,0.0045860158279538155,-0.0011387045960873365,0.016472220420837402,0.04791918396949768,0.04991581663489342,-0.00942161027342081,0.01541150826960802,0.019966326653957367,0.009047241881489754,-0.0042428444139659405,-0.008672873489558697,-0.048667922616004944,-0.02258690632879734,0.02395959198474884,-0.008236110210418701,0.016222640872001648,0.005116371437907219,0.02071506343781948,0.0009515202837064862,-0.0017704516649246216,-0.025956224650144577,-0.016846587881445885,-0.014849955216050148,-0.008672873489558697,-0.021962959319353104,0.005865108221769333,-0.013414875604212284,-0.026954540982842445,-0.026081014424562454,0.013789243996143341,-0.01884322054684162,-0.019092800095677376,0.0001442879147361964,-0.0016612607287243009,0.03144696354866028,0.009047241881489754,-0.01747053489089012,-0.002589382929727435,0.01846885308623314,-0.03693770617246628,0.04941665753722191,-0.008298504166305065,0.02620580419898033,0.005865108221769333,-0.018094483762979507,-0.03768644109368324,-0.006052292883396149,-0.005365950055420399,-0.013664455153048038,0.007206595968455076,-0.014101218432188034,-0.006957016885280609,-0.04717044532299042,-0.008672873489558697,-0.008860057219862938,0.03693770617246628,0.00010626609582686797,-0.008922452107071877,-0.0032757255248725414,0.024708328768610954,-0.01197979599237442,0.009296820499002934,0.04467465728521347,-0.020091116428375244,-0.006863424554467201,0.05291076749563217,0.00021448201732710004,-0.011106269434094429,-0.000822831061668694,0.016472220420837402,0.021588589996099472,-0.01934237964451313,0.00873526744544506,-0.03868475928902626,-0.027328910306096077,-0.021339012309908867,-0.011855006217956543,-0.018718430772423744,0.005771516356617212,0.005490739829838276,0.031571753323078156,0.02308606542646885,0.004149252083152533,-0.026954540982842445,0.0072377934120595455,-0.006395463831722736,-0.021588589996099472,0.03194612264633179,-0.010856689885258675,0.037187281996011734,-0.012229375541210175,-0.02857680432498455,-0.01984153687953949,0.01453798171132803,0.016971377655863762,-0.02770327776670456,0.02171337977051735,-0.006457858718931675,-0.009733583778142929,-0.008797662332654,-0.01884322054684162,-0.006177082192152739,0.016472220420837402,0.028826383873820305,-0.00773695157840848,0.002027830109000206,-0.028202436864376068,-0.014288402162492275,-0.014413191936910152,-0.03494106978178024,-0.0029325541108846664,0.013040507212281227,0.011480637826025486,0.012541349045932293,0.00873526744544506
"Boy, Boy, Boy ",-0.023191511631011963,-0.021180687472224236,-0.011595755815505981,0.0664912685751915,-0.04155704379081726,0.04825979098677635,-0.002362719038501382,0.06327395141124725,0.03284347057342529,0.009920068085193634,0.028687765821814537,-0.12708412110805511,-0.045578692108392715,-0.1109975203871727,-0.05871608108282089,0.01668984442949295,-0.08740384876728058,0.06220151111483574,-0.10670776665210724,-0.03780350461602211,0.0020443385001271963,-0.02144879661500454,0.07936054468154907,0.037267282605171204,-0.05040467157959938,-0.03539051488041878,-0.02882182039320469,0.06595505028963089,0.12118569761514664,0.0018600128823891282,-0.08794006705284119,0.0014746047090739012,0.023191511631011963,-0.0022454208228737116,0.00014138611732050776,0.10027312487363815,0.0884762853384018,0.04236137494444847,0.056034982204437256,0.04745546355843544,0.019840136170387268,-0.03431807458400726,0.012333057820796967,0.07507079094648361,-0.0073059964925050735,-0.025336390361189842,-0.037535395473241806,0.032173193991184235,0.013807662762701511,0.01668984442949295,-0.021985016763210297,-0.011059535667300224,0.06354206055402756,0.04289759323000908,-0.03565862402319908,-0.03619484603404999,0.016421735286712646,-0.07614322751760483,0.0890125036239624,0.03565862402319908,0.0006200042553246021,0.008579518646001816,-0.02600666508078575,-0.0033011038322001696,-0.0046248966827988625,-0.10831642150878906,0.0006451396038755774,0.01930391788482666,-0.050672780722379684,0.048527903854846954,0.05308577045798302,-0.03391591086983681,-0.00784221664071083,0.013271442614495754,0.01849958673119545,-0.0073395101353526115,0.037267282605171204,-0.04879601299762726,-0.029358040541410446,0.001508118468336761,-0.041020821779966354,-0.06246962025761604,0.04209326207637787,-0.0258726105093956,-0.0369991734623909,0.017427146434783936,-0.06541883200407028,0.03203913941979408,0.019706081598997116,-0.05362199246883392,-0.007037886418402195,0.016488762572407722,0.027615325525403023,-0.08257786929607391,-0.06434638798236847,0.01521524041891098,0.013003332540392876,-0.017092010006308556,0.07292591035366058,-0.07936054468154907,-0.0445062518119812,-0.09115738421678543,-0.010255205444991589,-0.01032223366200924,0.06381016969680786,-0.00958493072539568,-0.005261657759547234,-0.0035524568520486355,0.024800170212984085,-0.04370192438364029,-0.02010824717581272,-0.04718735069036484,0.0592522993683815,0.056034982204437256,0.0028654250781983137,-0.001725957845337689,-0.048527903854846954,-0.06407827883958817,-0.025738555938005447,-0.026408830657601357,0.03029642440378666,-0.10456288605928421,-0.08365030586719513,-0.08525896817445755,-0.044774364680051804,-0.021716905757784843,0.0111265629529953,-0.055230651050806046,0.023861786350607872,0.030698589980602264,-0.10456288605928421,-0.01253414060920477,-0.025604501366615295,0.08954872936010361,-0.005898418836295605,0.07346212863922119,0.07560700923204422,0.06086096167564392,0.027213159948587418,0.0010263584554195404,0.01782931201159954,-0.05415821075439453,0.026140721514821053,0.019035806879401207,0.07024481147527695,0.019572027027606964,-0.05549876019358635,-0.004725438077002764,-0.05389010161161423,0.003988135606050491,0.06863614916801453,-0.03431807458400726,-0.016756871715188026,0.012131975963711739,-0.045578692108392715,-0.013941718265414238,-0.051477111876010895,-0.04397003352642059,0.01849958673119545,-0.035122405737638474,-0.05630309134721756,-0.0016840656753629446,0.06246962025761604,0.009316820651292801,0.010925481095910072,-0.017561202868819237,0.03539051488041878,-0.01782931201159954,-0.02962614968419075,0.04665113240480423,-0.04155704379081726,0.0129363052546978,0.018231477588415146,-0.0031502919737249613,-0.04718735069036484,-0.045578692108392715,0.06434638798236847,0.03203913941979408,-0.014611992985010147,0.05791174992918968,-0.03284347057342529,-0.019437972456216812,0.023995840921998024,0.04370192438364029,0.04075271263718605,0.0030329939909279346,-0.000254495011176914,0.020376356318593025,-0.002614072058349848,0.12225814163684845,-9.478106221649796e-05,0.026274776086211205,0.00502706179395318,0.018901752308011055,0.03163697570562363,0.05254955217242241,-0.020242301747202873,-0.05362199246883392,-0.08418652415275574,-0.030698589980602264,0.006099501624703407,-0.09920068085193634,-0.009182766079902649,0.011260618455708027,-0.03351374343037605,-0.05415821075439453,0.014276855625212193,0.01702498272061348,0.03914405405521393,-0.05496254190802574,-0.06515072286128998,0.009249793365597725,-0.02292340062558651,-0.06059284880757332,0.011394673027098179,0.004021649248898029,0.042629484087228775,-0.05120900273323059,0.11957704275846481,0.06863614916801453,0.03780350461602211,0.00030162371695041656,0.0445062518119812,-0.06970858573913574,0.05764364078640938,0.001818120595999062,0.032977525144815445,0.08257786929607391,0.04397003352642059,-0.017427146434783936,0.10831642150878906,-0.04316570237278938,-0.05362199246883392,0.07078102976083755,-0.06139717996120453,-0.09115738421678543,0.045578692108392715,0.06461449712514877,0.017963366582989693,0.07828810811042786,0.09062116593122482,-0.00033513744710944593,0.002496774075552821,0.01916986145079136,0.0592522993683815,-0.05040467157959938,0.004926520399749279,0.027883436530828476,-0.011327645741403103,0.008478977717459202,-0.0520133301615715,0.012400085106492043,-0.007138427812606096,-0.0011646025814116001,-0.021716905757784843,0.0046248966827988625,0.0010682506253942847,0.03230724856257439,-0.04397003352642059,-0.02064446732401848,0.03458618372678757,0.0959833636879921,-0.029223985970020294,0.04289759323000908,0.019437972456216812,-0.03190508484840393,-0.05576687306165695,-0.03404996544122696,0.01601956970989704,0.04611491411924362,-0.021180687472224236,0.07238969206809998,-0.005864905193448067,-0.05469443276524544,-0.0026978563982993364,-0.06220151111483574,0.007909243926405907,0.029894260689616203,-0.03941216319799423,0.05844797194004059,0.018231477588415146,0.004021649248898029,0.04745546355843544,0.019706081598997116,-0.07989677041769028,0.011193591170012951,0.012668195180594921,0.04825979098677635,0.038875944912433624,0.01340549811720848,-0.07882432639598846,0.04665113240480423,-0.039680272340774536,0.030162369832396507,0.005898418836295605,0.06381016969680786,0.04021649435162544,0.0664912685751915,-0.003569213906303048,0.01782931201159954,0.02654288522899151,-0.009450876154005527,0.06300584226846695,0.06381016969680786,-0.07775188982486725,-0.03043048083782196,-0.0056303092278540134,-0.03110075555741787,0.06461449712514877,0.13459119200706482,0.05978852137923241,-0.11796838045120239,-0.021046631038188934,0.04531058296561241,-0.06381016969680786,0.00784221664071083,0.02734721638262272,-0.030564535409212112,0.03257536143064499,-0.023861786350607872,0.009786013513803482,-0.03351374343037605,-0.08472274988889694,-0.017561202868819237,0.005864905193448067,0.022521236911416054,-0.0015667675761505961,0.09705580770969391,0.07024481147527695,-0.06220151111483574,0.028553711250424385,0.09705580770969391,-0.004172461107373238,-0.06354206055402756,0.0664912685751915,-0.0670274868607521,0.06246962025761604,-0.04343381151556969,0.0595204122364521,0.09920068085193634,-0.0815054252743721,0.02211907133460045,0.09169360250234604,0.018231477588415146,-0.02010824717581272,-0.0442381426692009,-0.050672780722379684,-0.08204164355993271,0.04075271263718605,-0.018231477588415146,0.0445062518119812,0.006099501624703407,0.0009132495615631342,0.01702498272061348,-0.0028319114353507757,-0.05415821075439453,0.07292591035366058,-0.07507079094648361,-0.05469443276524544,0.05576687306165695,0.05764364078640938,-0.018901752308011055,0.03914405405521393,0.05630309134721756,-0.037535395473241806,0.0009677094058133662,-0.010791425593197346,0.03646295517683029,0.09115738421678543,0.039680272340774536,0.011461700312793255,0.07078102976083755,-0.01032223366200924,0.14585182070732117,0.0073059964925050735,0.09383848309516907,0.003820566926151514,-0.054426319897174835,0.0815054252743721,-0.027615325525403023,0.061933401972055435,-0.05871608108282089,0.03190508484840393,0.03941216319799423,-0.04879601299762726,0.06005663052201271,0.09437470138072968,0.06139717996120453,0.05496254190802574,-0.007708161137998104,-0.018767697736620903,-0.042629484087228775,-0.07453456521034241,-0.0026475859340280294,-0.02667694166302681,-0.04611491411924362,0.09169360250234604,-0.027079105377197266,0.09705580770969391,0.0011562241706997156,-0.03646295517683029,-0.0030329939909279346,0.03324563428759575,-0.047723572701215744,0.08794006705284119,0.021046631038188934,-0.0013321713777258992,-0.0035021863877773285,-0.0033178606536239386,-0.030162369832396507,0.046383023262023926,-0.04718735069036484,0.045578692108392715,-0.01769525744020939,-0.01407577283680439,-0.11046130210161209,0.010523315519094467,-0.028419654816389084,-0.0035021863877773285,0.05764364078640938,-0.009383848868310452,-0.049332231283187866,0.011729810386896133,-0.07024481147527695,0.02506828121840954,-0.010858452878892422,-0.0013321713777258992,0.028017491102218628,0.06354206055402756,0.05281766131520271,-0.12386680394411087,-0.058984190225601196,-0.03257536143064499,0.018633641302585602,-0.05844797194004059,0.017427146434783936,0.02882182039320469,-0.03833972290158272,-0.01005412358790636,0.040484603494405746,0.056571200489997864,-0.03646295517683029,0.07721567153930664,0.04289759323000908,-0.05630309134721756,0.07775188982486725,-0.013137388043105602,-0.01588551513850689,-0.03941216319799423,-0.018901752308011055,0.02815154567360878,0.04343381151556969,0.08472274988889694,0.03833972290158272,0.04718735069036484,0.049332231283187866,-0.13459119200706482,-0.056034982204437256,0.0520133301615715,-0.0007414916181005538,0.03914405405521393,0.08043298870325089,0.037267282605171204,-0.010925481095910072,0.024129895493388176,-0.03539051488041878,-0.008043298497796059,-0.002345962217077613,-0.05362199246883392,0.021314742043614388,-0.018633641302585602,-0.004172461107373238,0.0662231594324112,0.03941216319799423,-0.04397003352642059,-0.03284347057342529,0.028285600244998932,-0.07024481147527695,-0.02962614968419075,-0.08418652415275574,-0.05254955217242241,0.01769525744020939,-0.050672780722379684,-0.05281766131520271,-0.0369991734623909,0.015014157630503178,0.029089929535984993,-0.015014157630503178,-0.024934226647019386,0.04718735069036484,0.08579518646001816,-0.051477111876010895,0.0667593777179718,-0.01782931201159954,0.05683930963277817,0.03833972290158272,-0.018767697736620903,-0.08257786929607391,-0.014947130344808102,0.014813074842095375,0.02144879661500454,-0.021716905757784843,-0.0014243341283872724,-0.06086096167564392,0.0369991734623909,0.06541883200407028,-0.01514821220189333,0.0739983469247818,-0.07936054468154907,-0.046383023262023926,-0.11582349985837936,0.03163697570562363,-0.013874690048396587,0.0019437972223386168,-0.03914405405521393,-0.03458618372678757,0.019840136170387268,0.06917236745357513,-0.05389010161161423,-0.03565862402319908,0.01521524041891098,-0.012802250683307648,-0.004691924434155226,-0.03565862402319908,0.027883436530828476,0.0664912685751915,0.05764364078640938,0.04504247382283211,-0.017092010006308556,0.01782931201159954,0.019437972456216812,-0.046919241547584534,0.08686762303113937,0.06515072286128998,0.03485429286956787,0.010121150873601437,0.07507079094648361,0.0595204122364521,0.007741675246506929,0.0815054252743721,0.0739983469247818,0.04531058296561241,-0.07775188982486725,-0.021716905757784843,0.022789346054196358,-0.06541883200407028,0.023325566202402115,0.04236137494444847,0.005194630473852158,-0.002019203035160899,0.026945050805807114,-0.04289759323000908,0.03324563428759575,0.10188178718090057,0.02144879661500454,-0.07828810811042786,0.023459620773792267,-0.016823899000883102,0.0006283827242441475,0.09491092711687088,-0.08525896817445755,-0.046383023262023926,-0.006501666270196438,-0.007808702532202005,0.031502921134233475,0.017293091863393784,0.0013405497884377837,0.03994838520884514,0.030832644551992416,-0.05469443276524544,0.024263951927423477,0.11260618269443512,0.06488260626792908,0.01668984442949295,0.015751460567116737,0.003937865141779184,-0.07346212863922119,0.005429226439446211,-0.09062116593122482,0.018767697736620903,0.026140721514821053,0.12976521253585815,0.0667593777179718,0.04075271263718605,0.0063005839474499226,0.014813074842095375,-0.05871608108282089,-0.03284347057342529,0.04799168184399605,-0.01622065156698227,-0.08418652415275574,0.0063340975902974606,-0.008210867643356323,0.035926733165979385,-0.11206996440887451,0.028687765821814537,-0.018767697736620903,0.03646295517683029,-0.05871608108282089,0.05844797194004059,0.05040467157959938,0.030564535409212112,0.04155704379081726,0.09115738421678543,0.02439800649881363,0.045578692108392715,-0.061933401972055435,-0.05120900273323059,-0.03324563428759575,0.041825152933597565,-0.02077852189540863,-0.047723572701215744,-0.05094089359045029,0.11635971814393997,0.009182766079902649,0.04531058296561241,0.009718986228108406,-0.03780350461602211,-0.06783182173967361,0.013070360757410526,0.020510410889983177,0.01514821220189333,-0.0032843470107764006,-0.035926733165979385,-0.018633641302585602,0.029492095112800598,0.02010824717581272,0.012735223397612572,-0.009316820651292801,-0.055230651050806046,-0.005127602722495794,0.051477111876010895,-0.10778020322322845,-0.1324463188648224,-0.06220151111483574,-0.039680272340774536,0.04075271263718605,-0.037267282605171204,-0.024666115641593933,0.04825979098677635,0.06246962025761604,-0.05791174992918968,0.0890125036239624,-0.0056303092278540134,0.0008839250076562166,-0.14263449609279633,-0.007004372775554657,0.007205455098301172,0.02962614968419075,0.07560700923204422,0.0667593777179718,0.022655291482806206,0.04906412214040756,-0.03163697570562363,0.06970858573913574,-0.06729559600353241,0.0028989389538764954,-0.05469443276524544,-0.07238969206809998,0.0662231594324112,0.0595204122364521,-0.02359367534518242,0.010925481095910072,0.018231477588415146,0.044774364680051804,0.029894260689616203,0.05415821075439453,0.07667944580316544,-0.056571200489997864,-0.02681099623441696,-0.023995840921998024,0.006133015267550945,0.060324739664793015,-0.10188178718090057,-0.023191511631011963,-0.008043298497796059,0.039680272340774536,-0.011595755815505981,-0.035926733165979385,0.035122405737638474,0.0670274868607521,0.014611992985010147,0.06836804002523422,0.09491092711687088,-0.030698589980602264,0.04611491411924362,-0.01186386588960886,0.1340549737215042,-0.046383023262023926,0.06756371259689331,-0.033647798001766205,-0.02882182039320469,0.05389010161161423,0.029492095112800598,0.05683930963277817,-0.04021649435162544,0.04825979098677635,0.05040467157959938,-0.0030497508123517036,-0.0016589303268119693,-0.0002932452771347016,-0.041020821779966354,0.0002639207523316145,-0.008076812140643597,0.12172192335128784,-0.07882432639598846,0.05308577045798302,0.01849958673119545,-0.013003332540392876,-0.000446151738287881,-0.029492095112800598,-0.07185346633195877,-0.027883436530828476,0.007909243926405907,0.016957955434918404,-0.013204415328800678,0.01635470800101757,-0.0022454208228737116,-0.08204164355993271,0.1404896229505539,-0.029492095112800598,0.005261657759547234,0.025470446795225143,0.036731064319610596,-0.0129363052546978,-0.05764364078640938,0.0007582484977319837,-0.032977525144815445,-0.03539051488041878,-0.009517903439700603,0.03431807458400726,0.031502921134233475,-0.03780350461602211,-0.016153624281287193,0.03284347057342529,0.05281766131520271,-0.0033178606536239386,0.020510410889983177,0.05710742250084877,0.04611491411924362,0.09544714540243149,-0.044774364680051804,-0.0031670487951487303,-0.05362199246883392,0.07667944580316544,0.0046248966827988625,0.00723896874114871,-0.09222982823848724,-0.03941216319799423,-0.08633140474557877,0.07346212863922119,0.029223985970020294,0.09705580770969391,0.05040467157959938,-0.0442381426692009,-0.0333796888589859,0.06327395141124725,-0.0595204122364521,-0.015550377778708935,-0.027213159948587418,0.05254955217242241,0.047723572701215744,-0.1254754662513733,0.00425624568015337,0.04718735069036484,-0.0369991734623909,0.05549876019358635,-0.08740384876728058,0.05094089359045029,-0.08579518646001816,-0.03351374343037605,-0.06246962025761604,-0.012601167894899845,-0.004825979471206665,-0.017293091863393784,-0.10188178718090057,0.016153624281287193,-0.009249793365597725,-0.0022119071800261736,-0.030162369832396507,-0.058984190225601196,-0.06300584226846695,0.01916986145079136,0.04075271263718605,0.03860783576965332,-0.020376356318593025,-0.05630309134721756,-0.055230651050806046,0.03163697570562363,0.05469443276524544,0.03203913941979408,-0.05683930963277817,-0.0021951503586024046,0.00891465600579977,0.035926733165979385,0.0018097421852871776,-0.0520133301615715,-0.02506828121840954,-0.026140721514821053,0.03270941600203514,0.03244130313396454,-0.01407577283680439,-0.024666115641593933,-0.00341840204782784,0.05791174992918968,-0.028017491102218628,0.05308577045798302,-0.00258055841550231,-0.037535395473241806,-0.04343381151556969,0.02882182039320469,0.061933401972055435,0.0012064948678016663,0.03780350461602211,0.05040467157959938,0.050672780722379684,-0.04611491411924362,0.003854080568999052,-0.0592522993683815,-0.04021649435162544,-0.044774364680051804,0.03485429286956787,-0.05978852137923241,-0.08633140474557877,0.019706081598997116,-0.008713573217391968,0.013271442614495754,-0.04665113240480423,0.052281443029642105,-0.004071920178830624,0.01702498272061348,0.0331115797162056,0.05308577045798302,-0.01186386588960886,-0.01997419260442257,-0.05094089359045029,-0.04316570237278938,-0.0023292051628232002,0.014008745551109314,0.031502921134233475,0.04531058296561241,0.026945050805807114,0.009383848868310452,-0.06970858573913574,-0.010858452878892422,-0.1115337461233139,-0.004390300717204809,-0.013740635477006435,0.04075271263718605,-0.03123481012880802,-0.019572027027606964,0.010992508381605148,0.028017491102218628,0.05335388332605362,0.1260116845369339,0.052281443029642105,-0.04531058296561241,0.014008745551109314,0.05362199246883392,-0.014142800122499466,-0.026274776086211205,-0.0815054252743721,-0.07882432639598846,-0.018767697736620903,0.02895587496459484,-0.005194630473852158,-0.04236137494444847,0.001818120595999062,0.013807662762701511,0.024263951927423477,0.015818487852811813,-0.0009760878165252507,0.039680272340774536,0.016287680715322495,-0.04665113240480423,-0.0369991734623909,-0.07614322751760483,-0.03431807458400726,-0.12011326104402542,-0.05040467157959938,0.07721567153930664,0.08525896817445755,0.03257536143064499,-0.024934226647019386,0.03646295517683029,-0.07775188982486725,0.0021951503586024046,0.02976020611822605,-0.0258726105093956,0.023995840921998024,0.0018935265252366662,0.022789346054196358,-0.04370192438364029,0.118504598736763,-0.01253414060920477,0.02453206107020378,-0.06300584226846695,0.017092010006308556,-0.03646295517683029,-0.006602207664400339,0.06461449712514877,0.04531058296561241,0.025604501366615295,-0.03539051488041878,0.004390300717204809,0.009920068085193634,-0.03203913941979408,-0.02010824717581272,0.038071613758802414,0.0031670487951487303,0.051477111876010895,-0.07989677041769028,0.004691924434155226,-0.050672780722379684,-0.07882432639598846,0.0006995994481258094,-0.060324739664793015,0.04879601299762726,-0.0331115797162056,0.014813074842095375,0.010389260947704315,0.06836804002523422,0.048527903854846954,0.0074065374210476875,0.03324563428759575,-0.0965195819735527,-0.01601956970989704,0.03351374343037605,0.16408328711986542,-0.04397003352642059,0.02976020611822605,-0.006602207664400339,-0.03203913941979408,0.009853040799498558,-0.06515072286128998,0.03163697570562363,0.14477938413619995,-0.06005663052201271,-0.012467113323509693,0.09062116593122482,0.01032223366200924,-0.01514821220189333,0.08954872936010361,0.0018516343552619219,0.10188178718090057,0.010121150873601437,0.018365532159805298,0.014209827408194542,-0.013070360757410526,-0.021716905757784843,0.01226603053510189,0.04611491411924362,0.01514821220189333,-0.07989677041769028,0.07131724804639816,-0.02748127095401287,-0.030162369832396507,-0.00251353089697659,0.00723896874114871,-0.009450876154005527,0.025738555938005447,0.09705580770969391,0.02305745705962181,-0.002128122840076685,0.02372773177921772,-0.014410910196602345,-0.015349294990301132,-0.02359367534518242,0.014746047556400299,-0.004038406070321798,0.009987096302211285,0.012869277969002724,-0.09330226480960846,0.03539051488041878,-0.033647798001766205,0.1254754662513733,0.035122405737638474,-0.07936054468154907,0.04289759323000908,0.010255205444991589,0.07560700923204422,-0.0035357000306248665,-0.04128893464803696,-0.04504247382283211,-0.09330226480960846,0.021985016763210297,-0.002530287718400359,0.007641133852303028,0.025604501366615295,0.006200042553246021,-0.004457328002899885,-0.022655291482806206,-0.005228144116699696,-0.00958493072539568,0.0258726105093956,0.01005412358790636,0.017561202868819237,0.05496254190802574,-0.0111265629529953,-0.029894260689616203,-0.0010808182414621115,-0.07024481147527695,0.018633641302585602,-0.0520133301615715,0.04745546355843544,-0.047723572701215744,0.05683930963277817,-0.04370192438364029,0.0007833837880752981,-0.04960034042596817,-0.019035806879401207,0.05630309134721756,0.016287680715322495,-0.05978852137923241,-0.037535395473241806,-0.0013489281991496682,-0.038071613758802414,-0.020510410889983177,-0.009718986228108406,0.03123481012880802,0.008445464074611664,-0.029089929535984993,-0.09062116593122482,-0.007473565172404051,-0.005328685510903597,0.026140721514821053,0.023861786350607872,-0.00593193294480443,-0.01916986145079136,-0.047723572701215744,-0.04397003352642059,-0.0670274868607521,0.0026978563982993364,0.006166528910398483,-0.05871608108282089,0.05254955217242241,0.055230651050806046,0.007473565172404051,0.007741675246506929,0.0664912685751915,0.09759202599525452,-0.014611992985010147,0.04906412214040756,0.018633641302585602,-0.01849958673119545,0.0959833636879921,-0.05281766131520271,-0.002748127095401287,-0.05630309134721756,-0.04370192438364029,0.1034904420375824,-0.0592522993683815,-0.06488260626792908,0.01782931201159954,-0.003837323747575283,0.011595755815505981,0.006903831381350756,-0.027615325525403023,0.03780350461602211,-0.0667593777179718,0.0331115797162056,0.0055967955850064754,0.08579518646001816,0.030162369832396507,-0.02882182039320469,-0.02506828121840954,0.06086096167564392,-0.028553711250424385,0.03458618372678757,0.014008745551109314,0.017561202868819237,-0.03177103027701378,-0.008780601434409618,-0.02292340062558651,-0.05415821075439453,-0.006401125341653824,0.05335388332605362,0.06166528910398483,-0.06327395141124725,0.011461700312793255,0.01782931201159954,-0.046919241547584534,0.02158285118639469,-0.009853040799498558,-0.045578692108392715,0.061933401972055435,0.03391591086983681,0.02976020611822605,0.03177103027701378,0.020242301747202873,-0.004289759323000908,-0.016086596995592117,-0.02453206107020378,0.035926733165979385,0.052281443029642105,-0.009853040799498558,-0.0037535394076257944,-0.0517452210187912,-0.04075271263718605,-0.06917236745357513,-0.033647798001766205,-0.07560700923204422,-0.04236137494444847,-0.07775188982486725,0.03043048083782196,-0.06756371259689331,0.0520133301615715,-0.006870317738503218,0.02359367534518242,-0.03230724856257439,-0.006769776344299316,-0.03646295517683029,0.02748127095401287,-0.06729559600353241,-0.05549876019358635,-0.02077852189540863,0.0165557898581028,0.04745546355843544,-0.018097423017024994,0.018633641302585602,0.01916986145079136,-0.011260618455708027,0.058984190225601196,0.019706081598997116,-0.001256765448488295,-0.00011101427662651986,0.02359367534518242,-0.07024481147527695,-0.01186386588960886,-0.03619484603404999,0.0056303092278540134,-0.06756371259689331,-0.03539051488041878,0.03391591086983681,-0.04075271263718605,0.014142800122499466,-0.042629484087228775,-0.046919241547584534,0.05281766131520271,0.0595204122364521,0.015952542424201965,-0.03539051488041878,-0.03941216319799423,-0.0021365012507885695,-0.03163697570562363,0.11206996440887451,-0.09276604652404785,0.02372773177921772,0.05710742250084877,0.0064681526273489,0.037535395473241806,-0.0129363052546978,0.027213159948587418,0.03244130313396454,0.03270941600203514,0.03418402001261711,0.012802250683307648,0.014880103059113026,-0.058179859071969986,-0.022521236911416054,-0.014209827408194542,0.0055967955850064754,-0.04370192438364029,-0.048527903854846954,0.023459620773792267,0.038071613758802414,-0.027883436530828476,0.007171941455453634,-0.0517452210187912,-0.004323272965848446,0.03324563428759575,-0.02654288522899151,0.005864905193448067,-0.018365532159805298,-0.0074065374210476875,0.00965195894241333,0.046383023262023926,0.004273002501577139,-0.03458618372678757,-0.039680272340774536,0.04906412214040756,-0.020376356318593025,0.007473565172404051,0.13673608005046844,-0.0165557898581028,-0.037267282605171204,-0.0445062518119812,0.026274776086211205,-0.005060575436800718,0.10724398493766785,0.005228144116699696,-0.0028319114353507757,-0.03163697570562363,-0.07989677041769028,-0.01635470800101757,-0.014746047556400299,-0.020376356318593025,-0.07292591035366058,-0.028285600244998932,0.037267282605171204,0.02638983353972435,0.0351034551858902,-0.0007585521088913083,0.04630668833851814,-6.199704512255266e-05,0.027261195704340935,0.0502900592982769,0.0019138852367177606,-0.021535098552703857,0.03485449403524399,-0.000622401712462306,-0.013506117276847363,-0.005726095754653215,-0.010643069632351398,-0.040580593049526215,0.020912697538733482,0.020290296524763107,0.06373393535614014,0.0012681435327976942,-0.015311081893742085,-0.03112008608877659,0.025020549073815346,-0.0023184462916105986,0.003220928832888603,0.039335787296295166,0.009584986604750156,-0.005570495501160622,-0.003921130672097206,-0.0022095260210335255,0.023277824744582176,-0.021784059703350067,-0.0046991328708827496,0.010394108481705189,-0.018423091620206833,-0.008091222494840622,-0.009211545810103416,0.040829554200172424,0.01145219150930643,0.0019294453086331487,0.041825395077466965,0.045310843735933304,-0.019418932497501373,0.05502030998468399,-0.015746762976050377,0.008091222494840622,-0.02240646257996559,0.001968345372006297,-0.004045611247420311,0.02987528219819069,-0.0004026161041110754,-0.031742487102746964,0.03286281228065491,-0.036597222089767456,-0.022779902443289757,-0.02390022575855255,0.03585033863782883,0.010580829344689846,0.02614087238907814,0.05576719343662262,-0.01730276830494404,-0.008215703070163727,0.011514431796967983,-0.014252998866140842,-0.0002995308313984424,-0.03112008608877659,-0.013506117276847363,-0.016431406140327454,0.042323317378759384,-0.05078797787427902,0.026016391813755035,0.028008077293634415,-0.015871243551373482,0.040580593049526215,-0.008713623508810997,-0.06124432757496834,-0.03087112493813038,0.017178287729620934,0.03410761430859566,0.016182444989681244,0.02589191123843193,0.014128519222140312,0.017427247017621994,0.01854757033288479,-0.025269510224461555,-0.05477134883403778,0.0067841787822544575,0.005508255213499069,0.0008052322082221508,0.017925169318914413,0.008091222494840622,0.009958427399396896,0.026016391813755035,-0.020912697538733482,0.002474046777933836,-0.028257038444280624,-0.007157619576901197,0.05800784006714821,0.0004356811987236142,-0.012696994468569756,-0.020663736388087273,-0.039335787296295166,0.002302886452525854,-0.0020383656956255436,0.037842024117708206,-0.007811141666024923,0.021410617977380753,-0.0026452073361724615,-0.018796531483530998,-0.006472977809607983,0.004076731391251087,-0.042074356228113174,0.031244566664099693,-0.02838151901960373,-0.008838104084134102,0.04456396400928497,-0.030497683212161064,-0.029750801622867584,-0.015124361962080002,0.026514312252402306,-0.015373322181403637,-0.025020549073815346,-0.011265470646321774,-0.01630692556500435,0.01207459345459938,-0.020414777100086212,-0.019294453784823418,-0.0031586887780576944,-0.00044346123468130827,0.023277824744582176,-0.014377479441463947,-0.021535098552703857,-0.0502900592982769,0.0018827652093023062,0.04879629611968994,-0.0006068416405469179,-0.005072574131190777,-0.0014937641099095345,0.00802898220717907,-0.012696994468569756,0.04730252921581268,0.0175517275929451,-0.007904501631855965,0.025767430663108826,0.041327472776174545,0.06049744784832001,-0.007842261344194412,-0.0046991328708827496,-0.041825395077466965,0.009709466248750687,-0.021161658689379692,0.020165815949440002,0.040331631898880005,-0.07867157459259033,0.02838151901960373,-0.03360969200730324,-0.015124361962080002,-0.04929421469569206,-0.008838104084134102,0.00721985986456275,-0.0048858532682061195,0.03410761430859566,-0.006348497234284878,-0.015311081893742085,0.027510154992341995,0.07120275497436523,-0.013381636701524258,-0.010269627906382084,-0.041576433926820755,0.0046991328708827496,0.026763273403048515,-0.038090985268354416,0.006690818350762129,-0.005103694275021553,-0.00432569207623601,-0.05302862450480461,0.018298611044883728,0.016431406140327454,-0.016929326578974724,-0.00451241247355938,0.038090985268354416,-0.02713671512901783,-0.03460553660988808,-0.0036721699871122837,-0.001976125407963991,-0.013008195906877518,-0.01406627893447876,-0.007562180981040001,0.0006768618477508426,-0.005383774638175964,-0.007811141666024923,0.012261313386261463,-0.010394108481705189,0.00740658026188612,-0.02987528219819069,-0.0013537236955016851,-0.01730276830494404,-0.015746762976050377,-0.012634755112230778,-0.002411806723102927,-0.043568119406700134,0.03709514066576958,0.016182444989681244,-0.013506117276847363,-0.012759234756231308,0.02390022575855255,0.009522746317088604,-0.03087112493813038,-0.040331631898880005,-0.031244566664099693,0.008962584659457207,0.02514502964913845,0.015311081893742085,-0.023526784032583237,0.009336025454103947,0.02937735989689827,-0.005975056439638138,0.040580593049526215,-0.020663736388087273,-0.024024706333875656,-0.022033020853996277,-0.01630692556500435,0.030746644362807274,-0.03186696767807007,-0.013568357564508915,0.039584748446941376,-0.03236488997936249,0.01630692556500435,0.002567406976595521,-0.007811141666024923,0.021659579128026962,0.009833946824073792,0.01481316052377224,0.01854757033288479,0.015311081893742085,0.044066041707992554,0.020912697538733482,-0.0010658629471436143,-0.0006690818117931485,0.04655564948916435,0.013568357564508915,0.031493525952100754,0.019543413072824478,0.0030342084355652332,0.01244803424924612,-0.00902482494711876,0.004263451788574457,0.0276346355676651,-0.0048858532682061195,-0.05825680121779442,-0.03336073085665703,0.0007002019556239247,0.041576433926820755,0.07518612593412399,0.006815298926085234,0.02713671512901783,-0.028257038444280624,-0.036348260939121246,-0.0037810904905200005,0.0048858532682061195,-0.057758878916502,-0.03609929978847504,0.005072574131190777,-0.019543413072824478,0.004574652761220932,-0.013008195906877518,0.004107851535081863,0.01804964989423752,0.002069485606625676,-0.023526784032583237,0.02290438301861286,0.0067841787822544575,0.017676208168268204,0.10406556725502014,0.007126499433070421,0.008526903577148914,-0.07120275497436523,-0.030746644362807274,-0.013381636701524258,-0.017676208168268204,-0.020788216963410378,-0.02589191123843193,0.018796531483530998,-0.010207388550043106,0.02290438301861286,0.0020850456785410643,0.01730276830494404,-0.06049744784832001,-0.0552692711353302,0.018672050908207893,0.0006496317801065743,-0.00033648591488599777,0.010892029851675034,-0.009584986604750156,0.012634755112230778,-0.013194916769862175,-0.01107875071465969,0.030497683212161064,0.011203231289982796,-0.03709514066576958,0.018174130469560623
Crocodile ,0.05994148552417755,0.1419202834367752,0.0042697289027273655,0.07580835372209549,-0.08550477027893066,-0.06302671134471893,0.0590599924325943,-0.021706752479076385,-0.04958394914865494,-0.01443443913012743,0.05244880169630051,-0.09299745410680771,-0.07801207900047302,0.05773775652050972,-0.10577909648418427,0.036361563950777054,0.06126372516155243,0.07228238135576248,0.11371252685785294,-0.004104449413716793,0.03151335567235947,0.08462327718734741,0.1419202834367752,-0.011624681763350964,0.0539914108812809,0.08241954445838928,0.02567346766591072,0.007382499054074287,-0.07580835372209549,-0.011514495126903057,-0.09652342647314072,0.12693491578102112,0.05861924961209297,0.061704471707344055,0.13134238123893738,0.039226412773132324,0.10225312411785126,-0.026554960757493973,0.02732626534998417,0.07007864862680435,-0.024681787937879562,0.01972339302301407,0.08153805136680603,0.02820775844156742,0.011073748581111431,0.014654812403023243,-0.053109921514987946,-0.018621528521180153,-0.08418253064155579,0.053771041333675385,-0.06346745789051056,0.024571601301431656,-0.027767011895775795,-0.06963790208101273,-0.00515122152864933,-0.010853376239538193,-0.021706752479076385,-0.03107260912656784,-0.04098939895629883,-0.0674341693520546,0.05994148552417755,0.06567119061946869,-0.04165051877498627,-0.008759831078350544,0.012506173923611641,0.07140088826417923,0.053109921514987946,0.0674341693520546,-0.03481895104050636,0.017629848793148994,0.035700444132089615,-0.014214065857231617,0.0405486524105072,0.004875754937529564,-0.08638626337051392,-0.08682700991630554,-0.045837607234716415,0.047380220144987106,-0.03195410221815109,0.09740491956472397,-0.028097571805119514,-0.02699570544064045,0.13574983179569244,-0.0152057446539402,-0.05024506896734238,-0.0810973048210144,-0.02666514739394188,0.13134238123893738,0.0038565294817090034,0.017850222066044807,0.057297009974718094,0.07801207900047302,-0.07668984681367874,-0.03107260912656784,0.006087807472795248,-0.04671910032629967,0.06126372516155243,0.030631862580776215,0.010192256420850754,-0.05773775652050972,-0.04495611414313316,0.011018655262887478,0.06523044407367706,0.02159656584262848,-0.001432425226084888,-0.0064734602347016335,-0.015315931290388107,0.07580835372209549,0.022367870435118675,-0.0018318515503779054,0.002727117156609893,0.003911622799932957,0.07404536753892899,0.005729700904339552,0.03702268376946449,-0.042972758412361145,0.04539686068892479,-0.0036086097825318575,-0.008319085463881493,0.043633874505758286,-0.11723849922418594,0.11283103376626968,0.08021581172943115,0.08903073519468307,-0.06963790208101273,-0.0101371631026268,-0.1436832696199417,0.009641323238611221,0.011789961718022823,-0.03173372894525528,-0.08858998864889145,-0.1097458079457283,0.003112770151346922,-0.008925111033022404,0.026775334030389786,-3.443329842411913e-05,0.07007864862680435,0.021486379206180573,-0.0278771985322237,0.061704471707344055,0.04187089204788208,-0.013442760333418846,0.01994376629590988,-0.0031816367991268635,0.07272312790155411,0.003939169459044933,-0.0032229567877948284,-0.020384512841701508,-0.02413085661828518,-0.08241954445838928,-0.010522816330194473,0.09211596101522446,-0.11283103376626968,0.1216459572315216,-0.03834492340683937,0.101371631026268,-0.07316387444734573,-0.07801207900047302,-0.03702268376946449,0.0438542477786541,0.0304114893078804,0.05200805515050888,-0.03812455013394356,0.08021581172943115,-0.08550477027893066,-0.11106804758310318,0.01553630456328392,0.02699570544064045,0.06611193716526031,-0.07272312790155411,-0.022588243708014488,0.045837607234716415,-0.026444774121046066,0.03019111603498459,0.0024654241278767586,0.0608229786157608,0.10093088448047638,-0.06787491589784622,0.05046544224023819,0.0011638455325737596,-0.0691971555352211,-0.029970742762088776,0.10489760339260101,0.07713058590888977,0.04495611414313316,0.0202743262052536,-0.019503019750118256,0.025563281029462814,0.0405486524105072,0.006060260813683271,0.015977051109075546,0.06302671134471893,-0.009420950897037983,0.015315931290388107,-0.01873171515762806,0.0007644192082807422,-0.07492686063051224,0.009310764260590076,-0.07668984681367874,-0.10842356830835342,0.03658193722367287,0.045837607234716415,-0.0228086169809103,0.04627835378050804,-0.013222387060523033,0.010688096284866333,0.01443443913012743,-0.08682700991630554,-0.021816937252879143,0.06258596479892731,0.013387667015194893,-0.002107317792251706,-0.010412629693746567,0.0709601417183876,-0.1198829710483551,-0.001184505526907742,0.07668984681367874,0.06699342280626297,0.01939283311367035,0.021376192569732666,0.017299288883805275,-0.005261408165097237,-0.06875640898942947,0.022147497162222862,-0.05531365051865578,-0.01300201378762722,0.020715072751045227,0.04120977222919464,-0.016748355701565742,-0.013883505947887897,0.0066938335075974464,0.017960408702492714,0.036361563950777054,0.03966715931892395,0.01123902853578329,-0.03614119067788124,-0.03592081740498543,-0.07624910026788712,0.0709601417183876,0.026444774121046066,0.08594551682472229,0.048041339963674545,0.03834492340683937,-0.097845658659935,-0.07272312790155411,-0.029309624806046486,-0.08903073519468307,0.0037187961861491203,0.013112200424075127,-0.015315931290388107,-0.08330103754997253,0.10930506139993668,0.015646491199731827,0.08638626337051392,0.011018655262887478,-0.04958394914865494,0.001556385075673461,0.0228086169809103,0.049363575875759125,-0.05619514361023903,0.03305596858263016,-0.07977506518363953,-0.06699342280626297,-0.04782096669077873,-0.02479197457432747,0.10313461720943451,0.053109921514987946,-0.0040769027546048164,-0.1586686372756958,0.040769025683403015,-0.03900603950023651,0.08991222828626633,0.101371631026268,0.04253201186656952,0.010192256420850754,-0.013883505947887897,0.005729700904339552,-0.050024695694446564,-0.006197993643581867,-0.06699342280626297,0.0793343186378479,-0.08726774901151657,0.008594551123678684,0.06523044407367706,-0.015756677836179733,-0.029750369489192963,-0.02225768379867077,-0.1419202834367752,-0.022037310525774956,0.0557543970644474,0.010577909648418427,0.005729700904339552,-0.07713058590888977,-0.05046544224023819,-0.03459857776761055,0.012395987287163734,0.11283103376626968,0.03261522203683853,0.07713058590888977,-0.009751509875059128,0.0075542437843978405,0.06342842429876328,-0.07567854970693588,0.044100452214479446,-0.04546157643198967,0.0014206742634996772,-0.05036162585020065,-0.05008940026164055,0.01891963742673397,0.02409191243350506,-0.02899196371436119,0.008473003283143044,0.016809893772006035,-0.031033650040626526,-0.08003415167331696,-0.03675037622451782,-0.02014465071260929,-0.0024330110754817724,-0.008200778625905514,-0.014836262911558151,-0.027630837634205818,0.048728276044130325,0.04845605045557022,-0.029128076508641243,-0.013747362419962883,-0.02477247640490532,0.014904319308698177,0.018102962523698807,0.007622300181537867,0.009663987904787064,0.016809893772006035,-0.04328377544879913,-0.02177800051867962,-0.08711200207471848,-0.0003360277332831174,-0.0027562782634049654,-0.03974485024809837,-0.008677172474563122,0.023411350324749947,0.03198643773794174,0.03702260181307793,-0.08983425050973892,0.03253088891506195,-0.0002786052937153727,0.0009868156630545855,-0.03008086234331131,0.04709492623806,0.01837518811225891,0.032803114503622055,-0.09418985247612,0.0473671518266201,0.00018928144709207118,-0.04464489966630936,0.03756704926490784,0.01878352463245392,0.03756704926490784,-0.02545303851366043,0.0011824773391708732,-0.0014802234945818782,0.009187594056129456,0.0023989828769117594,0.07458965480327606,-0.06887292861938477,0.003947262652218342,0.008677172474563122,0.03484480082988739,-0.03729482740163803,0.022594675421714783,-0.031169762834906578,-0.03212255239486694,0.006363259628415108,-0.024908587336540222,0.05798392742872238,0.0650617778301239,-0.07948970049619675,-0.002739264164119959,-0.010957056656479836,0.07241185009479523,-0.05553390085697174,0.045189350843429565,0.06533399969339371,-0.05390055105090141,-0.08166750520467758,-0.032258663326501846,0.0015057445270940661,-0.03647815063595772,-0.07295630127191544,0.0473671518266201,-0.02245856262743473,0.012114012613892555,0.0707785040140152,-0.03171421214938164,-0.04192265123128891,-0.000574224628508091,-0.03470868989825249,0.0413782000541687,0.06070617586374283,0.047639377415180206,0.0029604469891637564,-0.053356099873781204,-0.09255649894475937,-0.0176946260035038,0.053356099873781204,-0.056350577622652054,-0.02531692571938038,0.004661853425204754,7.603159610880539e-05,-0.0707785040140152,0.015652937814593315,-0.028583625331521034,0.06397287547588348,-0.058800600469112396,-0.055806126445531845,0.0707785040140152,0.026133600622415543,0.019736312329769135,0.07567854970693588,-0.022050226107239723,-0.011773731559515,0.0767674520611763,0.020280763506889343,0.022050226107239723,-0.011841787956655025,0.013134856708347797,0.011025113053619862,0.04845605045557022,-0.06723957508802414,-0.008711200207471848,-0.026678049936890602,0.01878352463245392,0.030897539108991623,0.05771170184016228,-0.02245856262743473,-0.02409191243350506,0.005138246808201075,-0.007213962730020285,0.06968960165977478,-0.07731190323829651,-0.021641887724399567,-0.00826883502304554,-0.0077924407087266445,-0.04655047506093979,-0.06615068018436432,0.08057860285043716,0.004968106281012297,-0.0205529872328043,0.04709492623806,-0.006159090902656317,0.004151431377977133,-0.017286287620663643,-0.03920040279626846,0.028447512537240982,0.0767674520611763,0.024500250816345215,0.014768206514418125,0.03144198656082153,-0.038655951619148254,-0.01238623820245266,0.0356614775955677,-0.04682270064949989,0.004934078082442284,0.03307534009218216,0.03838372603058815,-0.0707785040140152,-0.07404520362615585,0.008030638098716736,0.0353892520070076,0.05362832546234131,0.05553390085697174,-0.00911953765898943,-0.12576794624328613,0.030216975137591362,-0.0015227586263790727,0.02354746311903,-0.03293922543525696,0.012862631119787693,0.019055750221014023,-0.013679306954145432,-0.04001707583665848,0.026814162731170654,0.015108487568795681,0.051722750067710876,-0.007009794004261494,-0.04954495280981064,0.040561527013778687,-0.01585710607469082,-0.06125062704086304,0.06587845087051392,-0.0030795454513281584,0.03675037622451782,-0.0176946260035038,-0.01150150690227747,-0.04028930142521858,-0.032258663326501846,-0.06424510478973389,0.03375590220093727,-0.04818382486701012,0.06723957508802414,0.020416876301169395,-0.04791159927845001,0.005478528328239918,0.027630837634205818,-0.006125062704086304,-0.03892817720770836,0.03212255239486694,-0.014291812665760517,0.033347561955451965,-0.09527875483036041,-0.00973204430192709,0.0353892520070076,-0.04954495280981064,-0.08112305402755737,0.036205925047397614,0.033347561955451965,-0.026678049936890602,0.05743947625160217,0.006363259628415108,-0.03647815063595772,-0.003930248320102692,-0.012250125408172607,0.04001707583665848,0.029400300234556198,0.02708638831973076,-0.04818382486701012,-0.0005104218726046383,-0.05553390085697174,-0.023139124736189842,-0.04546157643198967,0.010820943862199783,0.04655047506093979,-0.013679306954145432,0.03307534009218216,0.08547864854335785,0.020961325615644455,0.006941737607121468,-0.011093169450759888,0.0020161664579063654,-0.07241185009479523,0.02409191243350506,-0.024636363610625267,0.03892817720770836,-0.011433450505137444,-0.005172275006771088,0.008166749961674213,-0.011977899819612503,0.048728276044130325,0.01660572551190853,-0.08928979933261871,-0.0356614775955677,-0.02300301380455494,0.01599321886897087,-0.018511300906538963,0.005070190876722336,-0.0017524485010653734,-0.029128076508641243,-0.012794575653970242,0.055806126445531845,-0.03947262465953827,0.01837518811225891,0.03702260181307793,0.02885585092008114,-0.019327975809574127,0.0265419390052557,0.017286287620663643,0.0473671518266201,0.032803114503622055,-0.03783927485346794,-0.027903063222765923,0.0707785040140152,-0.0019566172268241644,-0.023139124736189842,0.003096559550613165,0.001675885170698166,-0.042194876819849014,-0.027903063222765923,-0.032803114503622055,-0.10671219974756241,-0.06560622900724411,-0.016333499923348427,-0.0004232248174957931,-0.0353892520070076,-0.019872425124049187,-0.010480662807822227,-0.016741838306188583,-0.014700150117278099,-0.01585710607469082,-0.0077584125101566315,0.09418985247612,0.04900050163269043,0.030216975137591362,0.031169762834906578,-0.013679306954145432,-0.049272727221250534,0.04355600103735924,-0.05743947625160217,-0.06778402626514435,-0.009663987904787064,0.02477247640490532,0.0025521095376461744,-0.000693323090672493,0.026814162731170654,-0.007996609434485435,-0.030216975137591362,0.040561527013778687,-0.025589151307940483,0.011569562368094921,0.01027649361640215,-0.04328377544879913,0.003419826738536358,0.009051481261849403,-0.02191411331295967,-0.05553390085697174,-0.008643143810331821,-0.05961727723479271,-0.07023405283689499,0.03593369945883751,0.025589151307940483,0.06778402626514435,0.01204595621675253,-0.0356614775955677,-0.0075542437843978405,0.024364138022065163,0.05444500222802162,0.0069077094085514545,0.03702260181307793,-0.001973631326109171,-0.009868156164884567,-0.02899196371436119,0.0034368406049907207,0.009459818713366985,-0.05036162585020065,0.052267201244831085,0.054717227816581726,0.008983424864709377,0.08057860285043716,-0.006091034505516291,0.013339024968445301,0.002620165701955557,0.016741838306188583,0.0650617778301239,0.04709492623806,-0.026269713416695595,0.048728276044130325,-0.0077924407087266445,-0.005070190876722336,0.024636363610625267,0.02191411331295967,-0.023955799639225006,0.018647413700819016,0.004831993952393532,0.029944751411676407,0.06342842429876328,-0.01660572551190853,-0.01823907531797886,0.03198643773794174,0.0413782000541687,-0.016809893772006035,0.005920893978327513,0.05063385143876076,-0.042194876819849014,-0.0035729531664401293,0.023955799639225006,-0.04083375260233879,-0.030353087931871414,-0.026269713416695595,-0.018102962523698807,-0.012998743914067745,0.02722250111401081,-0.025589151307940483,0.040561527013778687,0.002790306229144335,0.013679306954145432,0.023411350324749947,-0.038111500442028046,-0.08820090442895889,-0.008983424864709377,0.028447512537240982,0.04682270064949989,-0.00021480253781192005,0.06016172468662262,0.01599321886897087,-0.009800100699067116,0.03729482740163803,-0.0036410095635801554,-0.0707785040140152,-0.03470868989825249,-0.03974485024809837,0.07840080559253693,0.016197387129068375,-0.06615068018436432,0.02177800051867962,0.04246710240840912,-0.059889502823352814,0.01000426895916462,-0.021505774930119514,-0.051178302615880966,0.05036162585020065,0.018647413700819016,-0.009800100699067116,-0.055806126445531845,-0.06070617586374283,0.017286287620663643,0.020416876301169395,0.04491712525486946,-0.04192265123128891,0.04655047506093979,-0.022186338901519775,-0.004797965753823519,-0.017354344949126244,-0.01708211936056614,-0.027630837634205818,0.004525740630924702,0.0019310961943119764,0.014087644405663013,0.06560622900724411,-0.03470868989825249,-0.0062271468341350555,-0.027494724839925766,0.02300301380455494,-0.026678049936890602,-0.07186739891767502,0.023139124736189842,-0.0008804777753539383,0.08820090442895889,-0.004866022150963545,0.025044700130820274,-0.0411059744656086,-0.006805625278502703,-0.01606127619743347,-0.010820943862199783,-0.017286287620663643,-0.060433950275182724,-0.026814162731170654,-0.002739264164119959,0.004355600103735924,-0.02368357591331005,0.05498944967985153,-0.00265419390052557,0.006635484751313925,0.02123355120420456,-0.01204595621675253,-0.01653767004609108,0.05716725066304207,-0.02409191243350506,-0.0058868657797575,0.03756704926490784,0.0069077094085514545,-0.04655047506093979,-0.021641887724399567,-0.005920893978327513,0.06669512391090393,0.06941737979650497,-0.08057860285043716,0.044100452214479446,-0.005206303205341101,0.01823907531797886,0.0004508726706262678,-0.05063385143876076,-0.025725262239575386,0.009800100699067116,-0.014223756268620491,0.03348367661237717,-0.012250125408172607,0.0707785040140152,0.006975765805691481,-0.04954495280981064,0.013815418817102909,-0.03470868989825249,0.03729482740163803,-0.004559768829494715,-0.06097840145230293,0.017966849729418755,0.04600602760910988,-0.03361978754401207,-0.014087644405663013,0.03348367661237717,0.06070617586374283,-0.042194876819849014,0.003504897002130747,-0.0022458562161773443,-0.012318181805312634,-0.015789050608873367,0.06451732665300369,-0.007179934531450272,-0.010208438150584698,0.011909844353795052,-0.045189350843429565,0.004168445244431496,0.0176946260035038,-0.022050226107239723,0.002790306229144335,-0.001016590278595686,0.04818382486701012,-0.0265419390052557,0.008677172474563122,-0.00707785040140152,-0.0019310961943119764,0.028719738125801086,0.005036162678152323,-0.04083375260233879,0.020961325615644455,0.009663987904787064,-0.01783073879778385,0.0413782000541687,0.023411350324749947,0.00117397028952837,-0.04954495280981064,-0.006737568881362677,-0.007282019127160311,0.011297337710857391,0.01061677560210228,0.07241185009479523,-0.021641887724399567,0.024364138022065163,-0.04546157643198967,-0.04301154986023903,0.06261175125837326,-0.0029264187905937433,-0.023275237530469894,-0.014632093720138073,-0.047639377415180206,0.024364138022065163,-0.005444500129669905,0.010208438150584698,0.020416876301169395,-0.022050226107239723,0.02599748782813549,-0.024500250816345215,-0.011637618765234947,0.012726519256830215,-0.007622300181537867,0.01354319415986538,-0.006057006306946278,-0.02776695042848587,-0.005614640656858683,-0.008336890488862991,-0.015516825020313263,-0.010820943862199783,0.06424510478973389,0.005410471931099892,0.04464489966630936,0.05498944967985153,-0.00854105968028307,-0.004355600103735924,-0.03361978754401207,0.01415570080280304,-0.027903063222765923,0.015720993280410767,-0.03729482740163803,-0.01116122491657734,-0.01088900025933981,0.03838372603058815,0.029400300234556198,0.05362832546234131,0.04682270064949989,-0.02899196371436119,0.013134856708347797,-0.021369662135839462,-0.04246710240840912,-0.06016172468662262,-0.01837518811225891,-0.022186338901519775,-0.06669512391090393,-0.014632093720138073,-0.02531692571938038,0.04355600103735924,0.06560622900724411,-0.03892817720770836,-0.03484480082988739,0.028719738125801086,-0.023819688707590103,0.02531692571938038,0.09854545444250107,0.038111500442028046,-0.01660572551190853,-0.040561527013778687,-0.002620165701955557,-0.07567854970693588,-0.0411059744656086,-0.016673780977725983,0.038655951619148254,-0.020825212821364403,0.027358613908290863,0.04246710240840912,-0.0062271468341350555,-0.02177800051867962,-0.05852837488055229,-0.0887453556060791,-0.003623995464295149,0.023955799639225006,-0.03416423872113228,0.030216975137591362,-0.05390055105090141,0.021641887724399567,-0.06560622900724411,-0.011093169450759888,0.04900050163269043,0.019327975809574127,0.029128076508641243,-0.045733802020549774,0.042739324271678925,0.05553390085697174,-0.03416423872113228,0.06560622900724411,-0.022866901010274887,0.02545303851366043,0.025589151307940483,-0.010140381753444672,-1.555191738589201e-05,-0.0010676324600353837,0.019327975809574127,-0.10725665092468262,0.005750753451138735,-0.040561527013778687,-0.06941737979650497,0.02831140160560608,0.015040431171655655,0.07567854970693588,0.02477247640490532,-0.04682270064949989,-0.003028503153473139,-0.022050226107239723,0.04437267780303955,-0.005546584725379944,0.05798392742872238,0.031578101217746735,0.002092729788273573,0.047639377415180206,-0.03647815063595772,-0.06696735322475433,-0.029128076508641243,0.05607835203409195,0.08057860285043716,0.024500250816345215,0.0265419390052557,0.0073500750586390495,0.04192265123128891,-0.027630837634205818,0.05008940026164055,0.06941737979650497,0.013747362419962883,-0.03838372603058815,0.0887453556060791,0.01599321886897087,-0.04546157643198967,0.018647413700819016,-0.017422400414943695,-0.0030795454513281584,-0.01653767004609108,0.03361978754401207,-0.06070617586374283,0.044100452214479446,-0.011841787956655025,-0.026678049936890602,-0.008404946886003017,0.007724384777247906,0.024364138022065163,-0.04954495280981064,0.03361978754401207,-0.09092315286397934,0.029672525823116302,-0.008302862755954266,0.006601456552743912,0.011909844353795052,-0.015176543965935707,0.006635484751313925,-0.042194876819849014,0.0034878829028457403,-0.024500250816345215,0.04301154986023903,0.08330085128545761,-0.013066800311207771,0.035117026418447495,-0.011433450505137444,-0.07241185009479523,0.0071459063328802586,0.01327096950262785,-0.0014547023456543684,-0.0025521095376461744,0.007622300181537867,0.004525740630924702,-0.007043822202831507,0.07840080559253693,-0.05961727723479271,-0.03321145102381706,-0.08112305402755737,-0.010752887465059757,0.09092315286397934,0.04001707583665848,-0.011229281313717365,-0.032666999846696854,0.0413782000541687,-0.022594675421714783,-0.0007869004039093852,-0.03729482740163803,-0.03647815063595772,0.007247990928590298,0.08112305402755737,0.014291812665760517,-0.0006890695658512414,-0.02953641302883625,0.02545303851366043,0.01715017482638359,0.01837518811225891,-0.02014465071260929,-0.02477247640490532,-0.020961325615644455,-0.006703540682792664,-0.013407081365585327,-0.019736312329769135,-0.005648668855428696,0.04001707583665848,0.03920040279626846,0.029264187440276146,0.02354746311903,-0.008609116077423096,-0.010480662807822227,0.03375590220093727,0.004831993952393532,0.023955799639225006,-0.060433950275182724,0.012794575653970242,0.048728276044130325,0.058800600469112396,0.05036162585020065,-0.02300301380455494,-0.056895025074481964,0.01878352463245392,-0.022050226107239723,-0.08765645325183868,-0.06288397312164307,-0.06261175125837326,0.05036162585020065,0.04900050163269043,0.0413782000541687,0.020961325615644455,0.027903063222765923,0.025180812925100327,-0.03416423872113228,-0.01837518811225891,0.05090607702732086,-0.05607835203409195,0.06533399969339371,-0.02885585092008114,0.012590406462550163,-0.04246710240840912,0.047639377415180206,-0.06968960165977478,-0.0356614775955677,-0.030353087931871414,0.06315620243549347,0.07186739891767502,-0.06914515048265457,0.04900050163269043,-0.0176946260035038,0.003981290850788355,-0.07404520362615585,-0.028175288811326027,-0.04954495280981064,-0.019191863015294075,0.03702260181307793,0.04546157643198967,-0.031033650040626526,0.053356099873781204,-0.0006380273844115436,-0.06342842429876328,0.0022288423497229815,-0.004185459576547146,0.056350577622652054,-0.028039176017045975,0.004066361114382744,0.04437267780303955,0.03171421214938164,0.011093169450759888,-0.046278249472379684,-0.00939176231622696,0.044100452214479446,-0.08438975363969803,-0.007452159654349089,0.04818382486701012,-0.006295203231275082,-0.06860069930553436,0.059345051646232605,0.06615068018436432,0.013475137762725353,0.02953641302883625,-0.021097438409924507,-0.0062271468341350555,0.029400300234556198,-0.004934078082442284,0.01708211936056614,0.02068910002708435,0.0010463648941367865,-0.003419826738536358,0.013066800311207771,0.0356614775955677,0.008711200207471848,-0.03920040279626846,-0.04192265123128891,-0.01327096950262785,0.03198643773794174,0.03416423872113228,-0.03402812406420708,0.020280763506889343,-0.015789050608873367,0.0353892520070076,-0.009323706850409508,-0.09908990561962128,-0.02477247640490532,0.06097840145230293,0.05716725066304207,-0.0016248429892584682,-0.055261675268411636,0.021641887724399567,-0.021641887724399567,0.02000853791832924,0.01354319415986538,0.05852837488055229,-0.003998304717242718,-0.028175288811326027,-0.0353892520070076,-0.0038792062550783157,-0.005206303205341101,0.013679306954145432,0.03144198656082153,0.01265846285969019,-0.014768206514418125,0.01783073879778385,-0.013951531611382961,-0.030489200726151466,0.01721823215484619,0.03076142631471157,-0.002824334427714348,-0.00191408209502697,-0.02245856262743473,0.023275237530469894,-0.04192265123128891,-0.011025113053619862,0.09745655208826065,-0.0009698015637695789,0.10181215405464172,0.04028930142521858,0.009800100699067116,-0.07023405283689499,-0.028447512537240982,-0.007418131455779076,-0.03361978754401207,0.05662280321121216,0.02776695042848587,0.00973204430192709,-0.028583625331521034,0.038655951619148254,-0.02191411331295967,0.10889000445604324,0.026269713416695595,-0.02545303851366043,-0.040561527013778687,-0.027494724839925766,0.016741838306188583,-0.031169762834906578,0.020961325615644455,-0.02885585092008114,-0.054717227816581726,-0.05008940026164055,-0.05498944967985153,0.0413782000541687,0.01646961271762848,-0.02191411331295967,-0.03253088891506195,-0.0011229281080886722,-0.07023405283689499,0.056350577622652054,0.14373479783535004,0.05362832546234131,0.025725262239575386,-0.01592516340315342,-0.010480662807822227,0.001973631326109171,-0.02545303851366043,-0.056895025074481964,0.025589151307940483,-0.045189350843429565,0.05145052447915077,0.04791159927845001,0.010140381753444672,-0.006397287826985121,0.01891963742673397,-0.02000853791832924,-0.021097438409924507,0.028447512537240982,-0.051178302615880966,0.025589151307940483,-0.06533399969339371,-0.011025113053619862,-0.08547864854335785,-0.047639377415180206,0.07567854970693588,-0.03185032680630684,0.0013696320820599794,0.016673780977725983,0.02152852900326252,0.007438227999955416,-0.01136899832636118,0.029148178175091743,0.00616828678175807,-0.01838391274213791,0.07837352156639099,-0.0008201704476960003,-0.017900126054883003,0.0592639297246933,-0.06773020327091217,-0.04063812270760536,-0.05974771827459335,-0.004989055451005697,0.015299770049750805,0.07160050421953201,-0.015602136962115765,-0.003961007576435804,-0.004051717463880777,-0.01681160368025303,-0.016327816992998123,0.06434369832277298,0.02564072050154209,-0.01294130738824606,0.027333976700901985,-0.033865101635456085,-0.028785336762666702,-0.016448764130473137,-0.008526748977601528,0.024915039539337158,0.008103434927761555,0.03217184916138649,0.034832678735256195,0.04402463510632515,-0.047894932329654694,-0.0331394225358963,0.012820360250771046,-0.03362320736050606,0.00616828678175807,0.019593380391597748,0.04862061142921448,-0.0793410986661911,0.023342732340097427,-0.005593789275735617,0.018625807017087936,-0.06144097074866295,0.02273799665272236,0.06119908019900322,0.028785336762666702,0.02588261477649212,-0.04426652565598488,0.06773020327091217,0.047894932329654694,0.0462016761302948,0.004837871994823217,0.03942865505814552,-0.011187578551471233,-0.016085924580693245,-0.027092082425951958,-0.05345848202705383,-0.07885731011629105,0.03120427392423153,-0.05442605912685394,0.03725161403417587,-0.0010129293659701943,-0.016327816992998123,-0.0051704756915569305,-0.08708169311285019,0.01898864656686783,0.0662788450717926,0.055393632501363754,-0.02939007058739662,0.0027817762456834316,0.017416339367628098,-0.013727460987865925,0.014029827900230885,-0.027575869113206863,0.027696816250681877,0.03144616633653641,0.09191956371068954,-0.027696816250681877,0.035800252109766006,-0.014936929568648338,-0.019472433254122734,-0.019835274666547775,-0.05176522955298424,-0.015481189824640751,0.05998960882425308,-0.023947466164827347,0.04837871715426445,-0.010220004245638847,0.022254209965467453,-0.05708688870072365,0.03459078446030617,-0.032655633985996246,0.006561363581568003,-0.008587222546339035,0.0036284038797020912,-0.0505557619035244,-0.05345848202705383,-0.056361205875873566,0.00523094879463315,-0.012820360250771046,-0.018262965604662895,0.026608295738697052,-0.015239296481013298,0.043540846556425095,-0.022617051377892494,0.004565741401165724,0.0019502671202644706,-0.03410699591040611,0.03192995488643646,-0.05781256780028343,-0.019593380391597748,0.0924033522605896,0.03434889018535614,0.015420716255903244,0.02370557188987732,0.014392668381333351,-0.007014913950115442,0.020198114216327667,0.017900126054883003,-0.013364620506763458,-0.05587742105126381,-0.07692216336727142,0.03555835783481598,0.008163908496499062,0.028906283900141716,0.07595458626747131,-0.053216591477394104,-0.05079765245318413,0.05902203544974327,0.02249610424041748,0.016085924580693245,-0.0549098439514637,0.03894486650824547,0.039186760783195496,0.035800252109766006,0.02431030571460724,0.02999480441212654,0.014332194812595844,-0.004172664601355791,-0.008829115889966488,-0.04305705800652504,-0.06724641472101212,0.010824738070368767,-0.009010536596179008,0.020198114216327667,-0.07692216336727142,-0.04934629425406456,0.014271722175180912,0.017658231779932976,-0.026729241013526917,0.024189358577132225,-0.07111671566963196,-0.008284855633974075,0.007559174671769142,0.023342732340097427,-0.08321139216423035,-0.012880833819508553,-0.018867699429392815,0.02999480441212654,0.032655633985996246,0.010824738070368767,0.037009719759225845,-0.024794092401862144,0.01620686985552311,-0.020681902766227722,-0.02721302956342697,0.007075387518852949,-0.0056542628444731236,0.0017386102117598057,0.020198114216327667,-0.0462016761302948,-0.04910439997911453,0.027575869113206863,0.01935148797929287,0.011913259513676167,-0.04281516745686531,0.03894486650824547,0.004565741401165724,-0.05732877925038338,-0.005049528554081917,0.02370557188987732,-0.041363805532455444,0.008405801840126514,-0.03725161403417587,0.02902723103761673,-0.016327816992998123,0.03144616633653641,-0.026124507188796997,0.0036888772156089544,0.013969355262815952,-0.0592639297246933,-0.012517993338406086,0.1194954365491867,-0.044508419930934906,-0.03338131681084633,0.00662183715030551,0.029752911999821663,0.000737019523512572,-0.024431252852082253,-0.021044742316007614,0.003522575367242098,-0.00453550461679697,-0.043540846556425095,-0.061924759298563004,-0.004142427816987038,-0.028785336762666702,0.021649476140737534,-0.10062773525714874,0.014574089087545872,-0.03652593120932579,0.02588261477649212,0.00647065369412303,0.001103639486245811,0.008284855633974075,-0.01124805212020874,-0.012759886682033539,0.03241373971104622,-0.009494323283433914,0.09191956371068954,-0.00547284260392189,-0.032897528260946274,0.008526748977601528,0.0374935083091259,-0.02939007058739662,-0.050071973353624344,-0.007710358127951622,0.046927355229854584,-0.02939007058739662,-0.025156933814287186,-0.01064331829547882,0.08611411601305008,0.029269125312566757,-0.021649476140737534,-0.08321139216423035,-0.034832678735256195,-0.01838391274213791,0.02648734860122204,0.12481709569692612,-0.0023131074849516153,-0.036042146384716034,-0.04402463510632515,0.008466275408864021,0.061682865023612976,0.014211248606443405,0.03773539885878563,